{
  "columns": [
    784,
    15,
    784
  ],
  "activation_function": [
    "Tanh",
    "Sigmoid"
  ],
  "biases": [
    "[-83.13869322444533, 12.905855613717492, 56.880690171620486, -21.13340924000882, 16.09854156267492, -15.211311313894832, 47.99521694341606, -18.33062388889253, 24.680207812780164, -50.91707936055714, -58.689036455972236, -15.496699649090951, 16.36212696453988, -113.3127733161116, 20.86018643651206]",
    "[-6.418438824001196, -5.496662549147669, -6.354465733396601, -5.59767462409787, -6.239806183296315, -5.888346722477264, -6.040427180634969, -5.476853999574477, -6.213233810687434, -6.280970783479505, -6.65052488096321, -6.467899753454301, -5.723470566380491, -6.138542070288532, -6.3530483056689695, -6.392685578000713, -6.655194333032971, -6.119476458044433, -6.326442197308407, -5.622167678933924, -5.4837752043814, -6.40746611304264, -6.398991680873443, -5.9378470242525205, -6.408100294696749, -6.167007761349269, -6.824599843084104, -5.795525315028086, -6.165668851558274, -6.167387077197349, -6.8048064163310285, -6.804543121323446, -6.203688108785905, -6.219775278237037, -6.694998846669471, -5.473530511743602, -6.587784315020502, -6.150932735007155, -5.100385819574292, -5.919772522416583, -5.844629831653347, -6.58667715716132, -6.443571374879074, -6.363225187594939, -5.268085323289852, -5.303020767584018, -6.830001873599493, -6.796757923834441, -6.483605462807316, -5.685002509745707, -5.87959899404782, -6.13142480670339, -5.3112019371813375, -6.71015353642653, -6.655169908631724, -5.610090782036845, -6.627117634868475, -5.4747036014988995, -5.759380221470471, -5.864401302967674, -7.596792572436511, -6.841564482480618, -5.698875900752989, -6.080350357087778, -5.826820261548203, -6.361951617833824, -5.496438180649081, -4.320733897008434, -5.380122774540941, -4.068033544736804, -2.8604130636445033, -3.545718964373556, -6.002484791114836, -5.0539520291409925, -5.231569915994287, -4.970313694478168, -5.413091047532536, -6.147847263076656, -5.925463345847734, -6.154820677306917, -5.749199817278171, -6.034281776596626, -5.012125982132283, -6.267201550759752, -6.286055904737873, -5.764965756580184, -7.503636412658154, -5.739182202157416, -6.23461354142044, -5.939241819729439, -6.0823758488986375, -6.66430673313838, -6.001082821558218, -5.104686504153754, -3.9243533576660243, -3.262536063380361, -2.8229037943104673, -2.450004495165255, -2.361612327564788, -1.864067392147833, -1.0230127584747482, -0.712616410263622, -2.309086988324554, -3.3933859020110098, -4.500834887725635, -5.903173836794488, -5.68535754369824, -6.335860972283532, -5.8816174025610755, -6.845010190637269, -6.69887678381814, -6.242169291721504, -6.233943363104225, -5.884305320204092, -5.622941992971756, -6.896242934632811, -5.837348095513345, -5.908112479664688, -6.103167468001841, -6.2279495170415, -4.975764514049615, -4.059517254624766, -3.8940113314655913, -3.4744304656646525, -2.6799440477652334, -2.371870004362735, -1.9975632607441, -1.117952222901287, -0.8853004085890168, -0.6379114955012005, -0.6740257984088639, -0.7565282991854836, -1.4629830825249392, -2.3201244378009047, -4.543853189526712, -4.349511310957244, -6.652382539019739, -5.626699649507001, -6.273938238379494, -6.262921443273977, -5.734790489618372, -6.726123100849991, -6.1947366822238115, -7.198612157390443, -5.6842226654328, -5.592843223500713, -4.885258140852856, -4.809654330026859, -4.645009525218003, -4.712400740859483, -4.135299319189683, -2.912620694239157, -2.2064304565920563, -1.9589515182969996, -1.2766575682494008, -0.702416635738545, -0.48199127554586196, -0.4076386810421469, -1.1547205708605346, -2.1458055083605916, -2.0654393786159044, -2.0198724983044025, -2.589460309819309, -3.5558048519604677, -5.529239781800852, -6.370397240895102, -6.0296148489541315, -6.405686050580342, -5.624292697410475, -6.149400927339233, -5.423708944575834, -5.519000251496218, -6.578988632295169, -4.9578242871213565, -4.328173914761188, -4.608274330550901, -4.4007859986772155, -3.9733960581661623, -2.970624077851293, -2.063445747180418, -1.7086670413459688, -1.1057987750862814, -0.3313017195424385, 0.1686628228724676, 0.38080496654542295, -0.1497944601220429, -1.20153069722592, -1.8616970650892661, -1.0666163505929123, -1.1726175998352557, -2.252285750892769, -2.810861894421001, -4.4131362441680855, -5.0063863303364515, -6.082441664887013, -6.1124145842153395, -6.220528472626744, -6.842382747431126, -6.051938550077425, -6.1840725935427905, -5.398347563796116, -4.563358454624494, -4.394240960561949, -4.328643249720628, -3.9784512740695392, -2.990266648701949, -1.761673377653387, -1.0578730661922975, -0.2965293929937582, 0.537967580563183, 0.43595869717602215, 0.5545841592959351, 0.5677249991343599, -0.6188528022429923, -1.2511927828325753, -0.7710493947743802, -0.6359721518656144, -1.016290690668899, -1.4238234430623444, -2.810437063580604, -3.594799543307127, -5.0638557827773445, -5.052683346838335, -6.448775642417908, -5.724513977262178, -6.316932817802274, -6.328644646074053, -6.258479713226575, -5.458120010805981, -4.260710918929145, -4.662691892143104, -4.237617362850989, -3.5979878830109233, -2.4222849816308925, -1.0068311947195083, -0.03566006741446884, 0.374040462530924, 0.5156599829238693, 0.4433302043617236, 0.05634100179800197, -0.5736134954557572, -1.2376217997229577, -1.9349128511345572, -1.4526340338573647, -0.7297605978673672, -0.909053902431537, -1.148159052053332, -1.9726750284068622, -3.556614358082881, -5.4534745142388035, -6.794167941718538, -5.539815120955, -5.644559640686328, -6.765641521211536, -5.246262765430697, -6.138800595118374, -4.47182010537276, -4.586390972667095, -4.613241996723729, -3.56991147364317, -2.7577443783025792, -1.7308199813135685, -0.13047458616548357, 0.4270009324655413, 1.3509898425440703, 0.8660563699033357, 0.171234391153753, -0.3763182411624482, -1.131185161573425, -1.5781560325441142, -2.111061894682672, -1.2304214840554653, -0.7353519218960207, -0.6754650487343337, -0.7662377097016081, -1.3907791954974364, -3.6934075564372306, -6.283412746170857, -6.4513882549553605, -6.233795990164854, -5.839283196721868, -6.528319450443981, -6.107000967568034, -6.366771069175649, -4.563840040942174, -4.363398171201734, -4.015860126122407, -3.272221824539086, -2.124415327397618, -0.996795234264183, 0.5577924927297757, 1.5935870114827249, 0.8779517183521184, 0.31316854822320594, 0.2462833663174361, -0.6143665593151019, -1.6034506808098086, -2.2307294359907734, -1.801725332163293, -0.895137819743439, -0.5325941770914124, -0.6029718414406843, -1.4056629878400615, -1.9224581751208993, -3.8583674063715514, -5.871050776904224, -5.788221656431667, -6.09787284070294, -5.602520958696554, -6.796389622666798, -5.907348605721684, -5.923082764157327, -4.5703430422707525, -4.173579051378316, -3.4120964104201574, -2.589728986535074, -1.345591872765765, 0.3327668725248953, 1.156549066202986, 1.5682922381136761, 0.280066204733339, -0.2779796109911804, -0.7521963724722082, -2.0342100202235485, -1.903589269803043, -2.6473264339397375, -1.1891470535641617, -0.7604146326224627, -0.4731199032892729, -0.6585820934363108, -1.6348061859492078, -2.366619062812852, -4.8114167428499455, -5.573380299080413, -6.451898308876399, -5.615890496863952, -6.806346902517565, -5.772913047676184, -5.8893899371252045, -5.2920113448616375, -5.482454942025191, -3.7413830480644736, -3.3099129475371467, -1.5030794742538822, 0.05649065312471771, 1.2190550591842164, 1.731744676611432, 0.6071285444549427, -1.232482338640466, -2.192718061476225, -3.3104816804408514, -3.177448648781884, -2.2403672507192542, -1.1572183280750201, -0.22020831792454917, -0.04396809532712989, -0.08111758631233107, -0.025420992333002698, -1.0569572656172892, -2.461995265670542, -3.044597833260625, -4.934892304269642, -6.0674445471243725, -5.789890195799019, -6.721777716065403, -6.032829426705782, -6.126146076989226, -5.890578054370482, -4.996419853479034, -3.721377815854896, -3.0534882784092496, -0.33747564027108734, 1.2186591309825565, 1.8940136473164562, 1.1814964994389918, -0.6570136812937625, -2.4466550494121235, -3.8772853483185648, -3.5632286373812976, -1.6924243226553286, -0.6299350571157255, 0.7419975873396792, 1.5193766642667417, 0.9927382111264603, 0.37142895607670057, 0.5265716869760954, -0.39928629139888555, -2.3024876436140054, -3.4807883343222747, -6.3091196474580435, -5.644419560191804, -5.3087685612944435, -6.262804660982445, -5.516213079370161, -5.786777696522436, -5.528930760095093, -6.386735673428948, -3.925138026188388, -2.5261382259256857, 0.7166587088038506, 1.8421613868843718, 1.691811423538938, 0.24993772807962553, -1.2638087267763625, -2.3798097119557, -2.422308691177052, -1.3637196639421139, -0.3934984345588238, 0.9655981700364672, 1.705022980020974, 1.665718091700712, 1.2144515329994758, 0.7556719152340632, 1.2296260813014397, 0.10815359372980207, -1.8886381333877036, -4.095906549977171, -6.367733467358472, -6.4779325748509216, -5.4496167766856205, -5.5966791042376665, -6.61654455952539, -6.331722218931423, -6.267630425476661, -4.751208183904896, -3.9442163955897467, -1.7459535777634754, 1.5859314111224212, 2.947671056177289, 2.6080808879541144, 0.627226030428923, -0.4729648461396476, -0.8785518731301813, -0.7027608930371629, 0.14036818320696448, 0.5563711164630984, 1.5487115635806565, 1.6510445361367936, 1.3663395359822677, 0.822704540561649, 1.2518682885733339, 1.3156519163468336, 0.4467117139962065, -1.9501875369679302, -3.396908155541513, -6.284846182108012, -6.361149780255721, -6.702136683652502, -5.741715954628103, -5.5911864157808715, -6.60802585117617, -5.225688129307946, -3.5594759237047624, -3.414644842618471, -1.2362906621621894, 1.947039315461786, 3.5647981087954728, 3.174116858788615, 1.3675526340274269, 0.23805135832774552, -0.3425813063480662, -0.051911950662092476, 0.4011251494785096, 1.7027061940182773, 1.3032518180692794, 0.9070110832185891, 1.1753952159116121, 1.090669846103103, 1.4583746291556487, 1.3784091634770548, -0.055329233864802395, -2.115063308489647, -3.457700405624472, -5.871501218538854, -5.875790050484979, -6.5687757318501045, -5.287420375715509, -5.389434480454476, -6.401250900284634, -5.881933080553258, -3.186357775229624, -2.61481757078563, -0.43901242143814634, 1.7774444076439382, 3.0010387227919053, 2.553758672976213, 1.1814180693257206, -0.2595751312534885, -0.5210287972539381, -0.13346923141151296, 0.9204723827819197, 0.9502757717331123, 0.5061064274095028, 1.1769895006629143, 1.1286991484814435, 1.1706225216363553, 1.1617336941541798, 0.6347722672594477, -1.4833568449196008, -2.6549316995765495, -3.8393136016624383, -6.199489533737909, -6.510153762143951, -6.444899048943989, -7.122286592535509, -5.389194679314951, -5.845596335523672, -5.248056197375845, -2.4969024575318155, -2.0719142001557804, -0.06683025731960325, 1.3171530102936646, 1.9989482521343993, 1.448894586272607, 0.17763019222963145, -0.7434382452701217, 0.12769389685053156, 0.41791173938245424, 1.282809259399158, 1.3967321595493516, 1.257948612660804, 1.5561923216227413, 1.3151028703555743, 1.2203312716024908, 0.30447822347995684, -1.7997199610259642, -2.86984759136383, -3.2428898825288135, -4.492573748834997, -5.117680146265767, -5.993489214608423, -5.734583843892755, -5.471109750091139, -6.407310339685881, -6.0935333638062135, -5.962773476345293, -2.4825116977393553, -1.5969777210056268, -0.3670336613405032, 0.8944069983760218, 1.639374282443999, 1.1577384502871129, 0.2724776461533673, 0.3447809296292885, 1.0217298624184419, 1.1310742197862205, 1.4546450374953463, 1.5848916698141455, 1.8600939704428987, 1.106612046907412, 1.145316124959618, -0.36919027462358206, -2.0005679899732183, -3.1246815151788137, -3.7149472188632133, -3.7213550612012414, -6.250913401744313, -6.154890637276062, -7.302461145136299, -6.539420308394872, -6.7827762175244395, -6.240902448063089, -6.058244394334013, -5.411266997897149, -2.1623065940808908, -1.4578330058058209, -0.6315112408693568, 0.13701560736020485, 1.2732069800902563, 0.9181830398357435, 0.6795231117356859, 1.0619606953966394, 1.6312324355381334, 1.6097991664139488, 1.9899770878575926, 1.5394197972842463, 0.8164183077076003, 0.2594266153294371, -0.46683539399146196, -1.8825469114278301, -3.5545144938789304, -4.159582012444763, -4.41098163803284, -3.590399410773305, -5.386243965045577, -6.6307456218971295, -5.674852132444861, -6.236643640057803, -5.516703529486614, -5.236423379752935, -6.0485023976745005, -6.113451708437218, -2.807422222456409, -1.6426821963994307, -1.1635380354660423, -0.748070962895672, -0.2079075897617796, -0.08686574642238695, 0.3769206240386705, 1.388643370464813, 1.4264192942897962, 1.625880296282212, 1.5680781957692747, 0.463936958512725, -0.8803940870042816, -1.4627518072179462, -1.7654523442806185, -3.3703175462492694, -4.322783551583406, -4.541105933302705, -4.340678696055868, -4.250058802213498, -5.528449573291778, -6.28075154494303, -6.92651128045697, -5.605089769258002, -6.61820959786821, -6.081616200830818, -6.01163919436478, -5.200755101479501, -4.192286693879198, -2.4169034365106534, -2.0042188853294065, -2.003601948629909, -2.4226663783986013, -1.9050360312959997, -1.0719147058629652, 0.23519266124521412, 0.2630569174370106, 0.12671099063269953, -0.8781899249046935, -2.7240716694867966, -2.429061297928104, -2.4841990251353328, -3.5742321834583572, -4.380158240508037, -4.700108647715591, -4.134503176025094, -4.747171544209885, -5.211375683573661, -5.691173722018397, -5.493115595604344, -6.57621794300865, -5.6220866796047915, -5.435544278965516, -6.40098382608537, -6.578887171919986, -6.495025734638409, -5.529511273862187, -4.255850963520163, -2.757857122081129, -2.5266915218521167, -2.8448903611163305, -2.9084423008167386, -2.117860069083628, -1.8169195464199173, -2.3210904511867754, -2.3453638752424766, -2.984462868677943, -3.4322989917922646, -3.5869293452007773, -4.030750756410948, -4.170141077726232, -4.4795843129146995, -4.593740818135052, -4.778100028965135, -5.432415300171049, -6.1395276409563335, -5.942971040902376, -6.143699735494077, -6.1215861466126675, -5.854248285040543, -6.545666885657712, -5.7416969110094564, -6.422731346793983, -6.23269277849134, -5.705330481511637, -5.426275693563909, -4.717999794184966, -3.131655275594845, -3.1290161166934913, -3.4400308012647005, -3.4688019158937653, -3.635172831933894, -3.7263859715960908, -5.167988964910948, -5.879968763474865, -5.600042292450619, -4.809138423734747, -4.729100945644671, -4.67406489989681, -4.940294961193794, -4.8184608864631855, -5.419366828046004, -5.905097085734172, -5.836699117524324, -6.506397439887494, -6.526633269346944, -6.079772696285047, -6.221275145945919, -6.372662717138581, -7.300429519489067, -6.565281249680312, -5.826472576055259, -6.128261125089278, -6.728246096197385, -5.4964385598446475, -5.996112447739814, -4.053604900146915, -4.531529946852117, -5.476539837404167, -5.858319090546161, -6.348693580415461, -6.937902636812098, -7.212751487638145, -6.384752299187939, -5.215382325584506, -5.240090924338223, -5.2574947158984005, -4.779328621279552, -5.232035324921392, -5.318178566628145, -6.459064997114364, -6.391540513810918, -6.186512455531253, -5.8336817910034595, -6.4641895817484585, -6.189117579322368, -5.3838264622924985, -5.638128740868165, -5.829169112320322, -6.173244997397952, -6.051923964383704, -6.229441127674642, -5.9772665155996245, -5.443725672005163, -4.511176402391357, -3.457139881472305, -4.0305077128754805, -4.625933931896666, -6.161991708093665, -6.3491636509676805, -6.258301983611091, -5.755616663760968, -5.1076753147114635, -5.429108533783644, -5.948129391399255, -6.503719085408201, -6.496401985022677, -6.98471046493249, -6.30124869405459, -5.545556845124284, -6.450722153690719, -6.093286539986112, -6.7193355762428535, -6.037863693622993, -6.168264794977665, -5.295817330354472, -6.351108854879294, -5.661499572323988, -5.215806841358669, -6.544757572126607, -6.038513718378894, -5.666118377976538, -6.451749750116714, -5.315374133903742, -5.926835880268716, -6.737111913858097, -6.205661573159309, -6.684376640845259, -5.492902771587028, -5.072529869585593, -4.96331794568978, -6.5396132264631355, -6.78703477542439, -5.715536079703007, -6.2271913708681375, -6.513817609917416, -5.400875473063402, -6.763890777901974, -6.073084889422855, -6.628839814900023, -6.362117033807308, -6.504104755225478]"
  ],
  "weights": [
    "[0.399524321161035, 0.3889146704757247, 0.38079079932292725, 0.005365504591682724, 0.10586829758697558, -0.3422705028000893, -0.353306691443646, 0.4023445279722003, -0.11114264932333318, -0.3280842492278042, -0.23210617096167174, 0.17375794412087942, 0.12133737551710488, 0.07341221237302165, -0.023912736066621254, -0.2335614961775433, 0.20493778259961737, 0.43969853837713935, -0.4198512118844817, -0.34299201720811767, -0.06447257366715475, -0.36204886950407755, 0.03431263279077301, -0.4107861971086264, -0.38900706503427773, -0.31598495323731746, 0.4651774242554294, -0.11067477933794434, 0.1937207365388538, -0.34219187735679335, -0.3930471327089521, 0.05697664999842844, 0.3599445672539413, -0.4964393980958902, -0.24184651394527745, 0.15130385354170817, -0.02800202804291733, -0.12435111182822785, 0.46982417818026045, -0.23986939667728993, -0.32741888466093877, 0.26715175207061054, 0.5035481332452671, 0.47209960938281886, -0.19873914571960302, 0.2049621981252213, 0.011858705139474601, 0.4412581644527922, -0.4285172315418909, 0.11273601501089958, 0.007515432064332805, -0.08324931128957758, 0.23958122001127502, 0.379008303758141, 0.1806633859320257, 0.022536361739859734, 0.38517163720554815, 0.08091508155317184, 0.06003647386134037, 0.12816852653916444, 0.020662772341591307, 0.3987012327065927, -0.375232652555241, -0.047595935368972074, -0.42646137877511864, 0.23413784781140967, 0.3675365520430557, 0.327028565057073, -0.5946624810440311, 0.3006308358353061, 0.3257302406857089, 0.4957802806955418, -0.3638717669315379, 0.26016794392080994, 0.04303655642802605, -0.111922673519516, -0.11504938749421767, -0.005258295472661851, -0.1848416845336315, 0.0475613409136568, -0.2018199762858223, 0.487480193369604, 0.3882249833263196, 0.03503406803105025, -0.39759962204618304, -0.40551848880613917, 0.4428067262729244, 0.12054735944281825, 0.451012616730161, 0.3207785970020957, 0.3394887888790512, -0.13258405472084617, 0.17421035845960256, -0.38875108545901726, -0.09284985922382191, -0.568404186934386, -0.5529336633062394, -0.2661506279032588, 0.1326131895801449, -0.2018133814380659, -0.1656415765137647, -0.47432312842932606, -0.5831342057469661, -0.0758023920255527, -0.10517644708362478, -0.3560500400824924, -0.09267797837592467, 0.08556663158125465, 0.23109073862897492, -0.028215356566739295, 0.47671246250176746, 0.27549496792264316, 0.18652017918758246, 0.13234866516656618, 0.010173105437890184, 0.3120669771507881, 0.4027925363364267, -0.48534689989878593, -0.058794513858099806, 0.16320824536681133, -0.21487087201072483, -0.18780570473452288, 0.31947379545372, -0.377432100797249, -0.503237344193393, -0.17535534597618185, -0.4884273821216549, -1.0840700354069013, -0.9700747791820551, -0.3920327046719493, -0.4538977851341789, -0.4364329776835592, -0.05898304078732497, -0.0967543619935433, 0.4236853713111639, 0.2869602399628184, 0.3169883077480955, -0.43803020049539415, -0.07985114808597446, -0.353545685120929, -0.2081004681654064, 0.21667855768672445, -0.005166130937549055, 0.4576506985036431, -0.26041035356174264, -0.01723790070956162, -0.03760235871147835, -0.3130229746547622, 0.13811795762596632, -0.4851533911490087, 0.2604269700525422, 0.04328124273094739, 0.013681321869553448, -0.615700277662407, -0.7725430765009202, -0.8255831392724277, -1.2082746241053584, -1.1515129621509825, -0.5408255599772928, -1.2968512265043135, -0.8538436053522714, -0.6996724613519819, 0.2237020764655714, 0.6747010032382508, -0.3461256494801759, -0.4739802550395853, -0.10850524100165329, -0.26099978682868763, 0.17774453106684096, 0.37457019886664933, -0.4521486848623671, 0.4284357959087444, -0.10425460363205762, -0.025311673586782095, 0.20086147940270277, 0.4420436021698231, 1.133124570598128, 0.8108109577823246, 0.5734013015337789, 0.13506413896225794, -0.010534769411395093, -0.2120590697416592, -0.08619017732733095, -0.5378245957365666, -0.001562852660287295, -0.3338019228273907, -0.31682244949347804, -0.32741109900085913, -0.07741418650838518, 0.25736580329026915, 0.2358447058870878, 0.5801792777441399, -0.43502770880892916, -0.5053157517484563, -0.15742789429730675, 0.11514274089333745, 0.2327322596907213, 0.29896487326909976, 0.44473371468802814, 0.4307983103029914, 0.579446833335399, 0.2164241457140633, 0.4556585371530847, 1.2208256116058414, 1.1895449879340212, 1.1833412827437326, 0.7443535684620101, 1.154583593128555, 0.9988288221026632, 0.3984803964774121, -0.14478160791083602, -0.21320916768206324, 0.606360657700118, 0.3292532467498045, 0.8086272630107626, -0.6587011481212355, -0.9103182210010381, -0.015398224851218336, -0.3512852201436561, -0.3819500985149058, -0.32729923585941895, -0.5707008879418677, 0.19257347379778475, -0.158491367502126, -0.16943877545824815, 0.004047483344923806, 0.30310839297983316, 0.06255102374386703, -0.05184261466673868, 0.42577068063969653, -0.16371518763386905, 1.631010049973976, 0.6731101562982519, 0.5415011236421642, 1.9693027191309516, 0.81116582966361, -0.01573143555122495, -0.4987233771039006, -0.9027077870463577, -0.0629877975836101, -0.058947630068245487, 0.9959008767732785, 0.9474086590020812, -0.09555663763811938, -0.179058051637404, -1.0500526580279317, -1.1475091279895735, -0.6090607147892932, -0.14507451199462837, 0.23367246100651123, -0.13599342315599802, -0.41989729694688394, 0.18019639767855378, 0.2563760463473278, 0.4769589867285199, 0.07381288799342842, -0.20734715430682263, 0.47152977923753453, 1.2391841971505302, 1.8077730988280516, 0.9341654608938533, 1.59113225249365, 0.33197741531250646, -0.2471753668626774, -1.2130741523235247, -1.7524057351963807, -1.8103221960705527, -1.2556627289584668, -0.1355501787472064, 1.342493487129106, 0.19545961450748092, 0.32551895404346054, 0.07577555333402862, -1.2222706149468998, -1.2875506591808568, -0.8515877121261566, -0.34556567935235516, -0.5117649166386327, -0.3124541204544586, 0.1716106577823968, -0.1569026084181254, -0.38344487814355505, -0.4177529920806682, -0.1347810100425993, 0.27800542062799044, 0.37580075989921474, 1.2054666644460836, 0.7512319113702067, 1.088912903473011, 1.0715178052932983, -0.35189410516799363, -0.661174216904901, -0.9538958841148726, -1.0979896361494548, -1.1532081817210131, 0.5572991559813855, 1.6397592961819911, 1.9809773857259982, 1.754833430143947, 1.215140083929459, -0.3467899888326241, -1.2003524940343253, -1.1818971613055516, -1.2913992150173952, -0.5706314811776468, 0.07865255703296242, 0.04791119370205863, -0.044042415484755904, -0.19733556227326443, 0.3420170496942031, -0.11283152722790243, -0.04504455758493282, 0.3739219064977801, 0.8006572477580959, 0.42951517938290884, 0.28013166536662615, 0.9797316581198237, 0.7154588913107974, -0.04458733189905417, -0.7903669109822432, -0.9083425879824154, -0.05888889974370012, 0.550253800495589, 1.258280130406497, 1.705047561957355, 1.3526415377796732, 1.8946907372025166, 0.8191201110831693, 0.10880839423186235, -0.12542521850131635, 0.04839496028452572, -0.5841624836170274, -0.8629978670862762, 0.10318984783800574, -0.11918578506232336, -0.0869754973707866, -0.04073722109363431, 0.2935114885600544, 0.1370624944003503, 0.3521075650813236, 0.04139200371380093, 0.4237429574146519, 0.8229929329408104, 0.625510110303024, 0.36856458923211904, -0.8385816565781135, 0.09838529802438194, 0.185612245875879, 0.6780650984295589, -0.21038300859831177, -0.010783740436199733, 0.890741291303505, 1.949526913842477, 1.2257780913834944, 1.3161246889109715, 0.9513854149232848, -0.40699135416531557, -1.1726401949629368, -0.6288754300511382, -0.3227966771986804, -0.6387833809414101, 0.029742423538345407, 0.3715106809677946, 0.13656067842745523, -0.09996862390139227, -0.4281671543818333, -0.2420208192438426, 0.2276502117112214, -0.024396295990163724, 0.6124903361386225, 0.09310154768825878, 0.8622955707780179, 0.6851906996148703, -0.6018914364762039, -0.6960443052139228, 0.032857260458146936, 0.3111654642164645, 0.7042248808738955, 0.5957256770472994, 1.3000629201527436, 1.0514315236470997, 2.0050708816718026, 2.2796932832109262, 0.3977462123956758, -0.23180402989459575, -1.0304729659057847, -0.6972165051487033, -0.6025917672904949, -0.4000208743575944, -0.277941355411455, 0.05041889364627073, -0.1322221125778429, -0.07649718507487957, 0.004524209460849193, -0.144548761373566, 0.0349708853852171, -0.009795649473094005, -0.10223885167750422, 0.4531650987337483, 0.3539206165250858, 0.5104577013182556, -0.12636941827397857, 0.6114993149576702, 0.81996536317294, 1.0117203137463233, 0.5249304714299917, 0.04140560627439711, 0.41498298722806626, 0.8400539166226626, 1.2239570773743627, 2.24782968407091, 1.5373275261315826, -0.3901056097868305, -1.5453111323663888, -0.07559302525758053, -0.25362090302804663, -0.4044482294401689, 0.09687883867547101, 0.07963664213409104, -0.09208375714062877, 0.06741057210014156, 0.27645703422808143, 0.234351139930314, -0.1724131483389823, -0.35650534473757123, -0.13021869379889445, -0.06819964831471491, 0.08026510532148902, -0.44957188672208137, 0.40683300421250107, 0.970687845768421, 1.5187767964678969, 0.792428541223257, -0.6554730093864052, -0.8194288061730195, -0.42196855764688646, 1.0034044229343222, 2.061311341963812, 1.7309354305462112, 0.8470690605630136, -0.5002141462680799, -1.1668552787625592, -0.6849577081297138, 0.07780913038719939, -0.3856814449349833, -0.49576386740376915, -0.2898868035147878, 0.02724582935397814, -0.28308794416666805, 0.24760347783001518, -0.20859713911206293, -0.40852632957715945, -0.3264334341946663, -0.8568038364259337, 0.02113686714728686, -0.16148391609774987, -0.36892736146489974, 0.09083931357665305, 1.2779032454611823, 0.7258068551163975, -0.5317476821725268, -0.9802160672874954, -0.945291583406273, -1.1779082246457964, 0.23602753818899114, 1.3316851010477746, 1.9224974969222182, 0.8429697037756447, -1.2277105839534628, -0.9629766275112317, -0.12787387727359736, 0.176689143128576, -0.24379236659472822, -0.4889064482786447, 0.19070135218048834, 0.2177735002310469, -0.10664618161850903, 0.29438759120228397, -0.4598892912336305, -0.6962720492149088, -0.35051994028210365, -1.2164478610595375, -0.5627533246830083, -1.2915804987710557, -1.0267939481637978, -0.46964385282796833, -0.4332507197895086, -0.7825268029650199, -1.763121545153535, -2.14395770560909, -1.5737441922406454, -1.425765917209335, -0.4630026784880484, 0.6608460321828606, 0.8697235447548894, 0.014640149443763831, -1.6776255853120263, -0.08493549169813228, 0.7269287173735397, 0.39024199228205986, 0.24566088116761162, -0.060139479723466865, 0.4167367948493917, 0.35060514881230503, -0.19753243012515953, 0.025379119806719214, 0.1590719997103621, -0.4158934868956719, -0.8489174594675479, -0.35840963898013983, -1.2077027803645872, -1.1848225790410314, -1.7211593799287725, -1.4678564094754647, -2.1246507516446482, -1.869913390531975, -1.5085701781874217, -1.9407365759702842, -1.8818188209497226, -1.9352604130189752, -0.7830566523442335, 0.41808840344405873, -0.03459044450132062, -0.2082256110511011, -0.9317166046645161, -0.2233992263254843, 0.42383982696929434, 0.8255127330610871, 0.3334412294863535, 0.5891880909287568, -0.2534130785517105, -0.15443642420643955, 0.2383973679891782, 0.3851167240295847, 0.2727534109201608, -0.2918473304536262, -0.4564757577095466, -1.1584696231679348, -1.3964631597044606, -1.0491116088112524, -1.5707786614908608, -1.253272364158035, -2.4143719686669494, -2.633714554013894, -1.9479782031250161, -1.8880072839230346, -2.444550342934264, -2.158452139089596, -0.028072729901021054, -0.024495974111794674, -0.13601918032599536, 0.0075807769993522876, 0.18166110725134252, 0.632994230844245, 0.292929065947969, -0.03220147881657, 0.2203953802927238, 0.3340998587060793, -0.4537042060458045, 0.14258095598775597, -0.07277686613070722, 0.30522887129523624, -0.008111529157666683, -0.26049276209672545, -0.522210369256264, -0.8876384959265292, -1.2444133278101275, -1.6486555759587957, -1.8915776930682568, -2.62992322894545, -3.250871754684832, -2.6186243230830955, -1.8998328799007957, -2.610922697787558, -2.1174095447149788, -1.386138444562251, -0.31871154991476264, -0.3165390742840615, 0.5723578833803378, 0.5575087021233845, 0.47844316287962707, 0.06592004368101992, 0.1066434938814638, 0.6080330980136338, 0.2980711605150221, 0.06702952800488791, 0.4028858570718533, 0.2997722892273177, -0.23413149638002162, 0.0636387815170204, -0.30101330880295907, -0.1570963373384142, -0.10830361535381479, -0.44324735792790315, -0.4644928497407002, -0.7657146244615389, -1.2649735565041342, -2.2273787915658336, -1.7753293959599827, -1.1268802146179138, -1.5373821214494172, -1.4083435556662134, -1.7386043027965057, -0.36098857956992136, -0.2638468158246419, 0.4060643959804674, 1.0172586126778507, 1.041023759447422, -0.11300771013532071, 0.22642042149590688, -0.3842028879327358, 0.5569782972107871, 0.5863169144986601, -0.08378850477287515, -0.49502105563709525, 0.3610097194755355, -0.3753580838681586, 0.412710664101993, 0.25657318368234744, -0.14013135486449868, 0.08997948569053059, -0.3925212400806427, -0.1378692959497118, -0.24786436708979967, 0.029910824810809464, -1.0403515895497053, -0.5816532716394098, 0.681141402626509, 0.6468893301409852, 0.3684100409271798, 0.205668668522446, 1.245997968287623, 2.327446838478631, 1.8869958936747027, 1.3431087886879443, 0.8037356137260366, -0.36953197468492, -0.1581260164300357, -0.7910018908536188, -0.28322181578440847, -0.33491447503540006, 0.0655420307353968, 0.4959171603172496, -0.21652352991407875, 0.396815496807957, 0.46381155942554003, 0.16957649418144807, -0.1383347452192561, 0.46735794879825443, 0.2111102499426693, -0.2931860766494993, -0.1956018499893325, 0.029951540606725995, 0.29981464012857084, 1.1392932432866154, 1.9443014034338488, 1.674914674311866, 1.5574782160820022, 1.797010349208003, 1.934743372224413, 2.231202994052365, 1.4487659665653725, 1.0056445317656224, 0.08993188136384281, -0.02646723310208071, -0.9586368418790209, -0.355853076832926, -0.06069896753127894, 0.1504889262023509, 0.45659939430906255, -0.06308352574573536, -0.20544770238640675, 0.3019209085740334, 0.08361553102277353, -0.23574142455662928, 0.11327863768957476, 0.07271594671312862, -0.22553699953756712, 0.2013359728674173, -0.19290577034442918, -0.018241149325208723, 0.82474830182407, 1.1418683277343034, 1.0505104709208728, 1.851673967762424, 0.9294465960499237, 1.7524681323228266, 2.065076931765049, 1.3194739464977907, 0.903598501138717, 0.3209825670799967, -0.08159822452522802, -0.14084571557431633, 0.3497662034197248, 0.34251767032701097, 0.3942479744552857, -0.36186192562912517, 0.4210677498241197, 0.4244816677630677, -0.0668518145329089, 0.007037042579402075, 0.2963381684035703, -0.46517563135137163, 0.25092823079728455, -0.42109217311980957, -0.03777981969332055, 0.02677029409279131, -0.23216388324783588, 0.28673408283709256, 0.5105539750862945, -0.03770915532956427, 0.31050406578054873, 0.8567136585458205, 1.0364744866875755, 1.1658044127219402, 1.4452203727427781, 0.15944893055162648, 0.05052978307682331, 0.6185796190708682, 0.7173681150399759, -0.29695083102336867, -0.08897844326410013, -0.25480108152736575, -0.39803345064864365, -0.2597907379048567, 0.07144448027534878, 0.3965415550177266, -0.2922205675154991, 0.1273129456821116, -0.2301134790928595, -0.49387958008447996, 0.045784199682118665, -0.3795428155407814, 0.47109033472773304, -0.30276115936303516, 0.36043416050697824, 0.2680941269489859, 0.22128952259989623, 0.7057245324975482, 0.2403828862279856, 0.04885145290343744, 0.3764306020652587, 0.17265557953439659, 0.22328394989600292, -0.0669570467734486, 0.15882721395726898, -0.1756316723405206, 0.39306733880180245, 0.2102837169749757, 0.3190400182650966, -0.12246157921219587, -0.19636469402690487, 0.26158277781571604, 0.4982410953858195, 0.07086530188086637, 0.227928529030214, 0.3069831849839274, 0.47679864453867793, -0.3114957602794204, -0.35076498259493094, 0.4087140235556207, 0.06836546619159345, 0.48471644573889344, 0.15094187052405414, 0.133153799625026, 0.18736882650628917, 0.34532779654247087, 0.37959470119043487, 0.21701517833298717, 0.25531811346244165, 0.09950172399248193, -0.19592581273145646, -0.3941160239685587, -0.48621272976229535, 0.37020996604913303, 0.22466130269219206, 0.4432841978881743, 0.45403180840379626, -0.22763989694621078, -0.2650568968254352, 0.2127172099683754, -0.1327629048300495, -0.20334669331617672, -0.4378288641245993, 0.13532495212032358, 0.2667956660681874, -0.0033121649266312225, -0.3061430377715908, 0.48784959218714896, 0.27103467177497886, -0.23853070005415655, -0.4569216160796943, 0.2650280378530325, 0.3685371297871839, 0.009111797730950832, -0.4021155724572383, 0.012868846054629679, -0.261418238262339, 0.4056019525884339, -0.4119229134299497, 0.1853808613341683, -0.10288357131271508, -0.41809011669192586, 0.4994484379567423, 0.1369845712556631, -0.269950494083114, 0.03084214036810007, -0.40008743229099775, -0.4445732936280451, -0.3756918178866794, -0.1372271368603898, -0.24427705206154537, -0.28055133386522013, 0.34013273077682815, 0.40416489696256064, 0.4668272262653633, -0.16151223334057352, -0.07903486174046119, -0.29999674174411306, 0.23433963688464055, -0.3063392462032397, -0.22331182748258346, 0.19622658134730686, -0.2577056878466911, 0.024268123628989096, 0.1567533733042031, 0.013224658811629078, 0.24741133669748389, 0.11593871576140176, 0.07267445864130283, 0.24076812831799296, -0.30147030670201286, -0.4252667240527232, -0.20293106689453644, -0.3478765693308662, 0.07874859702905479, -0.48600539472118676, -0.1708976199738762, 0.1541871319510334, 0.49256339800725835, 0.48918112725395224, -0.02048412875724448, 0.366459235105034, 0.48142903692408856, -0.15310937369563737, 0.32970376542673085, 0.2303783978399349, -0.12274382159477772, -0.4480726767879928, 0.4903635474088129, -0.054024262039898276, 0.1639532404268348, -0.09661039615206739, 0.18619094601633057, 0.42358216227527135, -0.039220218704375795, -0.24376723547369716, 0.41903026089923756, 0.1335892673252597, -0.37101794062100923, 0.09346374484905624, -0.32490680724686677, 0.3647628122740469, -0.1492737167394268, 0.4795123709277978, 0.403770181422229, 0.40005217169107987, 0.31332744127916534, 0.2624848070455438, -0.2518834423688253, 0.23469486562799768, -0.05488361218744631, 0.14348670244100561, 0.20893889023244913, 0.1299464331570544, 0.35625504484704507, 0.3243207171416457, -0.416723381130662, -0.02298921980678701, -0.43984281942578357, 0.06955949367171847, -0.028936286726223913, -0.43214830670721854, 0.264175986928019, 0.35959056037068976, -0.05952920235531034, 0.46230983885494814, 0.1884200742810043, -0.4281327143948551, 0.41804798112556857, -0.48860050640963354, 0.2719221879167786, 0.2401401841538182, -0.09887750341500855, -0.434779537088466, 0.14058240630723662, -0.38829776264915294, -0.08352589028935842, 0.03393899939440537, 0.1669665261313313, 0.18469507249329478, 0.19509345055098407, 0.27354087221133633, 0.09671239500530311, -0.4988138922871747, 0.49276774265684614, 0.050338521948195374, 0.1763383391827395, 0.4665454845829574, 0.26740983989546224, -0.11613728937323377, 0.08833689725379522, 0.025266570283622263, -0.3034588747210017, -0.029713393212007458, 0.08966932863289284, -0.1360816069271415, 0.15854795881373587, -0.07232760471303927, 0.20370220057164834, -0.15588797252957753, 0.4098910140424182, 0.06229841365727653, -0.384045912127316, 0.19009892221061753, 0.38880451802636906, 0.46317502080841033, -0.16630711907091641, -0.3235895084292846, -0.2524218076118182, -0.38130711201046535, 0.4252729130908951, 0.39606246034109116, -0.32608950540949944, 0.21898817956846767, 0.06715026175611596, -0.09889469979511513, 0.11715938185037786, -0.30608957428797384, -0.1861786630578913, -0.3819539935209873, -0.2949830460899157, -0.40821709668778877, -0.3253666580013424, 0.2875174423327101, -0.15637688482089498, -0.35792801839307714, 0.41553790216204667, -0.19173396470554738, -0.29438970815101295, -0.41823233035320273, -0.299129870252436, -0.3159031051042671, 0.17972485794380577, 0.4188397749917141, -0.4363068928980758, 0.43451349710034654, 0.2520433665267394, 0.2825256813849006, -0.2700397301529247, -0.2526637313271277, -0.13017897854724686, 0.2813315589130287, -0.3096991114828292, 0.044877381896115114, 0.350131102108458, 0.016458304332947003, 0.38471585859560486, -0.1098492103167769, -0.05150843567213098, 0.017353286048140692, 0.06665667655196338, 0.44749406413104453, 0.43830444896132637, -0.18348139109665362, -0.12518078711826874, -0.4308670847483964, -0.3336528409053349, -0.21761282242112523, -0.11121899857324263, -0.19177385818428627, -0.47976558689783816, -0.0814263897845149, -0.2885322027164603, -0.33329497827049465, -0.26930611191114995, -0.12779658973326774, 0.05400366003903389, 0.18248816887984293, 0.592490010624663, 0.3232065259746129, -0.4005382682515454, 0.4281634493931982, 0.11217618467654553, 0.08579334089842357, 0.37728249502653244, 0.274051717454871, -0.14797516756718254, 0.04380071962295588, 0.03990642254269768, 0.17789936845073287, 0.13114104606092358, 0.341960383348089, 0.006659417820177301, 0.03609718474379116, 0.44885141063106804, 0.38123777813915594, -0.40763309590953656, 0.4713603052968294, 0.2228961248941465, -0.42076179186274576, 0.4932114511967565, 0.43100470393389584, 0.3714868735527601, -0.4118106813554821, 0.5612327887357785, 0.00868082625828849, -0.34096170229692635, 0.17604209136301718, -0.2791971265212031, 0.4431262375335711, 0.0865721897940745, 0.45820767594064754, 0.3658218369959775, -0.12004668266655454, 0.12329258776127384, 0.5120203209128458, 0.09169205570723672, 0.26678303019651906, 0.28020608300877786, 0.28560230975625955, -0.31686003033455495, 0.32884969697828437, 0.4095255683174949, -0.29889041973801106, -0.17904432709911758, 0.049569138656076234, 0.14492267253842672, -0.12662893781946208, 0.4437974884525944, 0.12709642329655257, 0.464603728603194, 0.43376639053236415, -0.3767413802699123, 0.05380966419823459, -0.08920331511545078, -0.23731113682043942, -0.36127757212259365, -0.20551633296784014, 0.38932092176280086, 0.3149597062871681, -0.05413963686061811, -0.07487499297381782, 0.13204930764736447, 0.5059090569163633, -0.13194028525607773, 0.028296578341181506, 0.3302994793000996, 0.10624370856122954, 0.23088232987410925, 0.3537328268513274, 0.4613473272301284, -0.10435425355671024, 0.23577723787160235, -0.024142107205366786, 0.30686942266331557, -0.42317527234925834, 0.29940978867202994, -0.2395010613537426, -0.1452716534913432, -0.2748667241832366, 0.32726850231822546, 0.3285843976944142, 0.45973421690101335, 0.26509027137884383, -0.022310484266288143, -0.23475707303487905, -0.29527259132495454, 0.5155346952743087, 0.6338229167948723, -0.12240909868992238, 0.4138830009059293, 0.2658656719235874, 0.38057217752551276, 0.12587793092058053, 0.2821918341281957, -0.2069657081230387, -0.12686303496646614, -0.36012889778512835, -0.10129050539865825, -0.49824151951514517, 0.05773509916841254, -0.19380657896184003, 0.007357986663738132, -0.2824731234124821, 0.26598833768407354, 0.3397636345596876, 0.2626179856739529, 0.28465094290567133, 0.33579910388346135, -0.026678165769998888, -0.052465898761140176, 0.45061531487179973, 0.13877535172324248, -0.15239384654936147, -0.23262874742833312, 0.3165188565209656, -0.13914436146905979, 0.1409214997701546, 0.17415171357077186, -0.2950869187867166, -0.27799591625958153, -0.1858114827529274, 0.25857370396067564, -0.31527237462726954, -0.22160550846827168, -0.026082064481662146, 0.40907281831460596, -0.37128085766751434, -0.24042372518640015, 0.4308163793332629, -0.22492867769859234, -0.16397951628004118, 0.09923186085203894, -0.32867334637957696, 0.3534991928724429, -0.12988366632417853, 0.162979335803133, 0.022607495773625218, -0.08648061566164582, 0.36684184654890106, -0.3722593307620973, -0.2846235671561392, 0.10735326500603411, 0.2619148617598795, 0.2076403482010743, 0.2727232968907642, 0.22054769496315724, 0.4099775461983269, 0.28829820291773595, -0.41553972631741243, -0.09907762525268236, 0.08068484565841004, 0.34819710592645503, -0.2701729434745594, -0.40072288781543236, -0.4836278443515085, -0.15690901351762487, -0.4480570386241627, 0.35919609026401944, -0.20432447697419756, 0.41455773443191063, 0.27822906361690414, 0.4521794338003619, -0.29152189043176163, 0.23408868380335016, 0.40314622726235416, -0.16751373459435268, 0.3908669259904462, 0.17215082715195087, 0.3195445868725031, -0.30843887768722816, 0.3205895483816268, -0.2866803908852222, -0.2706756877774751, 0.34819804180559344, -0.08852203248270896, 0.23436532992634723, 0.2991687765400205, -0.4289391451205475, 0.0496673070778863, 0.2180976886186107, -0.3141747423461836, 0.15052299664061197, -0.32173595605163763, -0.12848667717117634, 0.15978001264593356, -0.10007893302622728, 0.23130330447542677, -0.37671838989773776, -0.08874258389639335, -0.2522310756783343, 0.3197315493736989, 0.5064206851253082, -0.20611554937200183, 0.080684246538587, 0.1736492687543135, 0.2608846842065211, -0.3964363254853153, 0.500189051445791, -0.10669983517014961, 0.597391369554652, 0.2586145564311829, 0.13525993977683357, 0.41667030191629495, 0.10119753365912466, -0.04867446917668445, 0.15491381973719168, 0.13676952159091518, 0.045484257963853365, 0.014528104611822653, 0.23696397962088758, -0.11585844123228442, 0.32805779408980873, 0.09164999668475926, -0.2122340917169434, -0.13653670338032364, 0.28732875465937124, -0.10341797063315862, 0.23488924696501018, 0.46718467908536576, 0.21062252458529754, -0.2876919032334529, -0.2965855622762055, -0.39029366988375247, 0.13015872145688392, -0.16757845291382634, 0.2797968293390362, 0.40298911456168135, -0.3141128183132887, -0.34123078195793705, 0.48313044006344485, 0.46457604774321914, 0.2779620285625258, -0.1841732953159538, 0.43087420749038186, -0.26761261967490696, 0.15345157578534016, 0.3805475274831307, -0.36333842689225465, -0.2777864310037101, -0.29163519505645186, -0.2862679838588049, 0.4171435072048717, -0.41327948627630345, 0.20348401668879984, -0.03407853426592986, -0.2809040681383237, -0.19033589245721347, 0.411004210598175, -0.17403732066562183, -0.1911458385211698, -0.3222885012699645, 0.33796968975575165, 0.3911897501973761, -0.14464839771795443, -0.29264149338927586, 0.3547830135248691, 0.5479022693425332, -0.2164863346758902, -0.23162138075211805, 0.1504354087519211, 0.41359834631603215, 0.49474913425045663, 0.006531118357821417, -0.46386509214695754, 0.3461980585628149, -0.18083679502452624, -0.2557208111840918, -0.21129202122842214, 0.3236371605406416, 0.21902767442298698, 0.07798545850278639, -0.24759458783140623, -0.409429124844062, -0.41060073614261705, -0.012193958170985992, -0.34500158888030696, -0.017866745717167003, 0.23353742717353704, 0.3928084263541833, 0.09399057360804458, 0.406456173445295, -0.09015117813638353, 0.4024146104782274, 0.21257143957558414, 0.41908124283993003, 0.27652357977835945, -0.2563275221821674, -0.27968418912566306, 0.1157110046736514, -0.45419776853822175, -0.16165639760806397, 0.28569656402112287, 0.4964904357642774, 0.48965658694190367, 0.3540727545301848, 0.08438147946632582, 0.3866666690649543, 0.45836234709889667, -0.4052402870592677, 0.14788205720924605, -0.19726158115047507, -0.24553572208393068, 0.4076284744990694, 0.3651618892883611, 0.3468536903091381, -0.055400731497149636, 0.33242533040042693, -0.2891869937474029, 0.24126096460192, 0.30463773173587605, -0.17844397382331845, 0.029366677549436004, -0.28416973970384063, 0.5806510563717889, 0.22812098025654962, 0.2136672247399712, 0.19800365467638834, -0.17550710895309998, -0.16340549108092242, 0.21615869242208138, 0.26530147192489023, -0.09919076589347253, 0.2952794643105199, 0.3685415028293906, -0.4668781605988319, 0.36995509954463024, 0.2567335574089027, -0.29570681817985783, -0.47758417655245744, -0.1946403041252408, -0.10070179743966126, 0.09466775331021819, 0.27273664378130413, -0.04124303152736729, 0.008173105983650824, -0.09400148935573858, 0.5862156714499205, 0.46544681000262944, 0.04570075281746603, -0.08157624411111263, 0.47533562418145536, 0.46391912078981806, -0.10937055808648961, 0.49554665978709617, -0.03429577728151306, -0.23526731134476672, -0.058496475662709733, -0.05812044824354021, 0.12039259267867713, -0.3580878410392114, -0.4086761355378975, 0.38583455718888116, 0.29728834608281396, -0.307586442108054, -0.19048760591376826, 0.013894172490581957, -0.034140380100508905, 0.43427884874840145, -0.39970481299951643, 0.4184874900395811, -0.04137027526343467, -0.011087204575769248, -0.25121113170394554, 0.5170534973559783, 0.00035290336973141064, 0.5989298560314151, -0.2632312291036992, -0.2221196544623342, -0.1114061150180804, -0.25569556007983923, 0.0825354109486603, -0.3417727598744589, -0.36712548079369356, 0.38148489802919083, -0.44254648365231714, -0.21167992252318882, -0.27881983798038434, 0.06111246108480085, -0.3931696278501703, -0.3098635239646995, -0.36967542055823943, 0.48126742099968034, 0.3013668153414764, 0.34438915117936497, 0.10010623302657136, 0.096183508088951, -0.07468268363609212, 0.08665271153977, 0.1623770777279252, -0.08609221396298129, 0.3584386410786076, 0.18214128208885713, -0.0357646642021529, 0.7470916581679998, 0.10336119323360791, 0.4208403645473634, 0.3278413493235004, 0.18454925136685651, 0.2423725715442647, 0.07931440243992896, 0.4830424763067106, 0.4909110510404298, 0.4799182472807364, -0.23525765508046279, 0.035369375630503234, -0.3621737346217507, -0.3945002186094249, -0.005636401232752997, 0.3082137175540366, -0.24382190274254445, 0.08184442831038048, -0.30984015011253585, 0.09082812545102505, -0.40857311036487465, 0.41808578844499095, 0.19375829391675087, -0.027218641349021893, 0.0913910687239252, 0.00172261412875273, 0.3940758431655611, 0.29090361878452925, 0.561834435579424, 0.18782380807245272, -0.21709009250873343, -0.08014320567442376, -0.15440554753174904, -0.2107546084061245, -0.238813948184042, -0.43038812836752277, -0.017595691848070468, -0.4905351901399466, 0.10913017252549749, 0.24190350757667722, 0.24675523464223367, -0.43231509554958975, -0.34377851463477405, 0.09202105146782935, 0.3234414972885744, 0.2472103649728631, -0.3383475175410926, -0.3376616085963793, -0.15207966212074822, -0.015508629532377409, -0.40145587497591656, 0.49379148497771475, -0.35452471970593813, 0.3112662168229155, -0.25963884646954977, 0.6858749264238164, 0.15144033307689314, 0.3244039500071628, 0.42627612693768663, 0.3519733333620978, 0.4759791877480087, -0.006020731928711029, -0.2342519331321737, 0.3330148420591997, -0.16452305843955475, 0.339410327854344, -0.14784408378498892, 0.0638577306182921, -0.017329598835549454, -0.28680201426171376, 0.222119173322204, -0.2827796481749253, -0.49756047968577644, 0.05773505625478159, 0.35804924092834484, -0.004138033975984054, -0.3054826425525795, -0.28734366405874373, 0.2443387225599452, -0.46757884895159973, 0.1870885444022573, -0.013950256460466182, -0.013706654881750793, 0.3554138812485126, -0.07128302464702678, -0.350733650071065, 0.05613322518585916, 0.4059640781083995, -0.15844991139126804, -0.2387394040338214, 0.01299617397362411, 0.11198763703249288, -0.009713214964946433, -0.04092474810994208, -0.34837897927852945, 0.46323923341140805, 0.46634851868439164, -0.12142763243390098, -0.2436815402208522, 0.48327827035583226, -0.04502719434226088, -0.3517881567145432, 0.41454728188657924, -0.3324125139023792, -0.08790754463728974, -0.15788002081265223, 0.40678651619817285, 0.3169436509660531, 0.33363085597347364, 0.31696901673565775, 0.5053092147014668, 0.5399222502146678, -0.19818696473076963, -0.04299914806279018, -0.012571088651979295, -0.26814542566411914, 0.141625445540648, -0.04119807689405071, 0.1758810098294365, 0.3778674462935283, -0.08265330454620383, -0.3961545456359352, 0.2580217010273472, -0.4039969498293237, 0.21632234019719906, -0.03678631373732777, -0.1397671806632793, 0.24527401259782244, 0.03152235913822932, 0.3566836071300691, -0.2510724073408628, -0.05114876275046337, 0.07457977536439794, 0.08448324499122963, 0.08518102375001917, -0.00408011940631794, -0.2453126324317096, 0.1984588689202971, -0.11215466398376488, 0.40248256634392665, 0.10289134356026249, 0.43299891504107874, -0.28004954803114823, -0.32963781251663443, 0.325063665914183, 0.02641185670760334, -0.04381374988005682, 0.482835333957547, 0.2557610579115053, 0.4703216417061456, -0.47819113184929846, 0.42923795155133043, 0.38198762046001156, -0.18786010117263463, -0.3940752643600245, 0.31836725479575556, 0.1603349618544747, -0.3768820599013448, 0.13772794518243114, 0.43837216595133566, 0.41659862436140627, -0.2720627191314151, 0.16397199212989416, -0.41579581551782513, -0.4446879694716363, -0.3929768927532394, -0.4621133256579401, -0.35405519411358743, 0.48622519877514736, 0.0803127351846164, 0.4781069371170019, 0.1678991913523326, -0.021293197167173733, -0.3576773365472957, -0.22923932579602144, 0.1455890373973144, -0.2133482309909732, -0.10004119621047958, -0.055311915226826214, 0.33820895163067755, -0.18270770777319878, 0.12857227275824967, -0.43110309456664586, 0.38470206497925885, -0.06241982229947107, -0.13367421565613824, -0.1708366897710838, -0.15519164925740747, -0.47242321052204805, 0.20292637835604765, 0.24524969092021875, 0.4580610977967331, -0.2796210988136961, -0.35666489259808143, -0.40207961308451334, -0.047167623756649624, 0.11050058239814409, -0.17375583106080683, 0.1821297045445619, -0.3841136791428924, -0.169640692899938, 0.3402505029663374, -0.18540488314835846, 0.16598240283347032, -0.10865827909771142, 0.30725821073503157, -0.13068104336449304, -0.3179983921213103, -0.2553789870278893, 0.3157053158017403, -0.014441401056253578, 0.054203455172611936, -0.3237838155395828, -0.3559140911891434, -0.3481492075500803, -0.26055865579836335, -0.25085494947690357, -0.19212391009550256, 0.3018806270735346, -0.15400075668103377, -0.07700073661580245, -0.37847618750129675, -0.36323039057689077, -0.33413427733244533, 0.13266706337858014, -0.09499348453780614, -0.3355880787135051, -0.0951732696005706, -0.03222141734427578, -0.4201608124246103, -0.17863573404613342, -0.33914848028581324, -0.4936347522745098, -0.044353679277193914, -0.02456130649014443, 0.39301448341079703, -0.08871340348022072, -0.03128085414825699, 0.3039863788667867, 0.04973932427732719, 0.04687026034813724, -0.22323717377910912, 0.20746117428905286, 0.313154187019713, -0.055969405085273156, 0.017948598973009017, -0.5049858363550137, 0.2977723607145536, -0.3379668527354026, 0.2979318488908089, 0.01787337143570315, 0.15567924307587455, 0.252626089158079, 0.49197099441983444, 0.09314130004267195, -0.11913036226563536, -0.17033111036872908, 0.044391059689334066, -0.21207465853482066, -0.09950917329096619, -0.27294280707778734, -0.4066725904726184, -0.41040639083043906, 0.4340354934959116, -0.012781526568066193, 0.09176923729096753, 0.24465060000459582, -0.47556170678422593, 0.10949420099249874, -0.07396317341273573, -0.0851072989559396, -0.38678761894011077, 0.04427080038376045, 0.02810170409256409, -0.4285909151730682, -0.047351741250706764, -0.12911086442624983, 0.8826087710568279, 0.3696603435588187, 0.9845500642106891, 0.5617542145117567, -0.27788276282654106, -0.6233196045890519, -0.5989720935102825, 0.04685980514753804, 0.42503524266114634, 0.011743019807052458, -0.6411323512774705, 0.153276775176073, 0.13191559689441046, -0.4961272294193861, -0.1799946897344848, 0.3678457543231393, 0.4712220376701842, 0.08697878974092443, 0.23750470064029394, 0.23787670714568043, -0.26989965020695894, -0.3620292177035743, -0.14097573189694199, -0.16897509621713833, -0.7132170261714139, -0.546342710558856, -0.19086839995635632, -0.04038548667110759, 0.23669879253579668, -0.19343167527379448, 0.5447390026546108, -0.3785394256394557, -0.8172804770413836, -0.6795622107470377, 0.5753552881520301, -0.3030493293038115, -0.4198258558946577, -0.9376726438542109, -0.416666069360893, -0.08482663513864701, -0.1135745098876221, -0.7194173888274805, 0.12199163060924746, -0.2297314531848902, -0.42136669109672575, -0.3825509799839186, 0.12221273150476342, -0.21595401405255754, 0.07308018382758945, 0.2649390639178054, 0.09776047780642726, -0.14585112165948996, -0.8719595652233303, -0.09787095920226435, -0.5040442531666094, 0.6545356682402926, 0.0025380687575825775, -0.4337215049404686, -1.0805137470888366, -0.9123262386072762, -1.0274902985830676, -1.2864047276901176, -1.5977968809416936, -1.47802011531772, -0.9456920915266831, -0.6477338553343995, -0.011693515787500523, -0.7711912660625695, -0.35062956570195253, -0.6221542028741783, -0.6481550934023135, -0.5833979298752106, 0.4189809607471891, -0.18320182594764134, -0.20052633555946742, -0.3592960910419001, -0.0564690532145665, -0.44316858901559525, 0.2677371755176836, -0.059865803092718814, 0.17809116681123008, -0.18488726565072425, 0.0040381580756573155, -0.2851808424393522, 0.49351662462231966, -0.20023053962419016, -1.1947408472936234, -1.0753062831946931, -1.8104911679219864, -2.0724037413860787, -1.7752860493830431, -1.1128172784238395, -0.7125366743162583, -0.21268305959863285, -1.0196678283706864, -0.7490793734897518, -0.34593368537995467, -0.3589124804765375, -0.810551757520673, -0.7724438291740837, -0.3639783448043851, 0.14691347448664233, 0.48876342223097136, 0.1541986972400871, -0.39250511484636724, -0.49556328571419406, -0.5980090147731083, -0.3298583180172751, 0.16230703082253728, 0.31389592920369297, 0.20066960072807363, 0.8432233439570405, 0.6745347152063933, 0.7294197325634049, -1.0318876970161075, -1.4034114220125447, -0.7434604576870395, -1.0644530179753895, -1.4836235197576604, -1.0151290169742195, -0.4019369814040873, 0.5182180449011343, 0.29000464603209936, 0.39274141528510276, 0.18712021793204028, -0.5325300908350971, -0.6106050745208531, -0.7401988367852027, -0.1215627598992905, -0.255959536142246, -0.3777339963624544, -0.0792837403562764, -0.29618077366637624, -0.06307696135423817, -0.1408741988595834, -0.07037975819719791, -0.4134588510051423, -0.15071139452900417, 1.5880794465821144, 1.3697060396800937, 1.8222574129216225, 0.7465309462550233, 0.3312548196090624, 0.45705308505619247, 0.35111968036436775, 0.3261572378170557, -0.6994259177328066, -0.3104614622446836, 0.5703641851617863, 0.5627220003042233, 1.1134789602466035, 2.02300562629966, 0.7617664416594052, -0.6079257037594774, -0.24880548470503616, -0.7144961594048918, 0.0020433246508751723, 0.34464890757378, -0.18679623622742667, -0.49763990160740124, 0.04916042134040203, -0.18378355124794044, -0.2640309955973664, -0.40902154700760124, 0.1021028743979896, 1.1715306309940436, 2.2194492956994973, 1.7148183271900503, 1.7325514601319894, 1.5001960641640413, 0.7729384433971445, 1.8779623209181522, 0.10371870457980183, 0.8571746334414418, 0.29933716924415543, 0.04609871665901713, 1.0414807795176402, 0.21543646124678503, 1.8843595412857483, 1.4165668430748015, 0.9151854894144366, -0.26848480088846677, -0.802820151644176, 0.18297997101597077, -0.1667615199272913, 0.021334323124664545, -0.31605697636096547, 0.03218750913208947, 0.06651688699382236, 0.5394235772699237, 0.17592612567884683, -0.495598736524571, -0.3778571833249073, 1.1556677426011488, 2.33161488950797, 1.9878212278751635, 1.0591841862511846, 1.3152931717265084, 0.9053917500872912, 0.5584568672253142, 0.38834683258847735, -0.05166262844495685, -1.4842715169964795, -0.8861754635194052, 0.10032494651738894, 1.2206080857168096, 2.8212062863231187, 2.275502494957851, 1.4976879502959726, -0.025034393204726287, -0.09271945896639026, -0.283592303983813, -0.4036091511429444, -0.049050617219267074, -0.34826677785410043, -0.47064082198773954, -0.4397944606320269, -0.2899191128963106, -0.21610457381286866, 0.10619842602006963, 0.3412859486089956, 1.9478406369980896, 2.8396916149825353, 1.5860702510419773, 0.7006490531322164, -1.2132018239977607, -0.2247571884617303, -0.1082859867491681, -0.32346244852347117, -1.7775811290949235, -1.695726691136306, -0.6903750296135407, 0.32538127507443076, 2.1003598187918557, 3.2439524084091107, 2.679124791867194, 1.4175525745939384, 0.6588711705127335, -0.11936318270677039, -0.22729111594081555, -0.5757807090567947, -0.09652956293592502, 0.15676499343228056, 0.12374642571198305, 0.299791643477737, -0.3963463569230838, 0.16031285008736512, -0.29979018199075025, 0.3392235961068432, 1.4924704221027956, 2.664615827462702, 2.479329292652733, -0.22106512923011948, -1.725960936493072, -2.465008988066224, -2.9429631722461163, -3.0125764894548013, -2.3080061058840444, -0.9806623725560254, -0.5487392978305728, 1.1231127145552247, 2.0138906010427213, 3.60235852313555, 2.636232217756655, 2.043272893920735, 0.5702038405288422, 0.46215502009909876, -0.1025812361890649, -0.22130418594597862, -0.4610742403686664, -0.21536671581833056, -0.3083638351138526, 0.302701594994024, 0.20315759603159114, 0.12748819469374298, -0.2560514460370518, 1.0044135447967404, 1.9992567961638352, 3.1064265111314793, 1.3456498142844335, -0.4809041799242043, -1.814679284856842, -4.081351320513363, -3.813281070163421, -3.5706836582903936, -2.260814453506268, -1.8572555367847945, -0.27612423156277394, 1.086812530133966, 2.2601939480421476, 2.674193957444353, 3.1846604394629625, 2.625319976356684, 0.06184615370843054, -0.19268601603298466, -0.1881591955213648, 0.20386187672411277, -0.2528695334015443, 0.19480184805526002, -0.4540927895411233, 0.5737120437178459, -0.2170395930647649, -0.3038849649721385, 0.7224756983009942, 0.8416487445326661, 2.3196998154701602, 2.823642847358128, 1.0704441481849847, -0.21871001399023304, -2.2314094181613324, -2.6591931407451668, -4.08444385739423, -3.198154755629847, -2.1390471666428783, -1.2811241631216586, 0.05783619735683401, -0.5965741652696187, 0.4929343244369819, 1.9000319950857847, 2.731202587448253, 2.098615899075317, 1.1953941550400473, 0.3611084747935755, 0.2441335523816814, 0.38588502527058227, -0.09315705424603737, 0.08774572668251013, -0.14265811941021467, -0.37414448101823033, -0.3847506771030959, -0.1188257133079404, 0.37529319127349436, 1.5649358309172883, 2.391254567982515, 2.8558261493364, 2.049817619956413, 0.21615229059668606, -0.9366312288392729, -2.1488348060096407, -1.8620182333116482, -1.3865178315435576, -1.0415493575754373, -0.010994590508539796, -0.4915241768828166, -0.43092446004897256, -0.040935699871689935, 1.188313133996637, 1.883434655911601, 2.1239259331272287, 0.42078997373480387, -0.2645915473835494, 0.41023253446629127, -0.0787314308893538, 0.31529151527641003, -0.4331657741808961, 0.2632821118183984, -0.31802446746641466, -0.15874343087191056, 0.05820070089492419, 0.9601291632870331, 1.8383316982238647, 2.318300698556094, 2.337004266074479, 1.3762878034754842, 0.7073860978069073, -0.10072925991908198, -1.1630087318497382, -1.0783999491565939, -0.3832974204852878, 0.11675898542347615, 0.2368998472312805, 0.11767096374977996, 0.01768926455194184, -0.9775698021860109, 1.7403852328272298, 0.9099631303038466, 2.029602236743587, 0.9993615436650027, 0.3712850506529868, 0.23289166080407556, -0.3422232429489882, 0.24401539215470405, -0.38873391863255413, 0.47818570707550834, 0.2077882610673707, 0.3300664123135668, -0.022594955472726334, 0.5343550393431419, 2.21137331218685, 2.3438422392551574, 1.4715616846551671, 1.4861573830562083, -0.4253806769247432, -0.8232357099994246, 0.096787617421437, 0.6964076095080112, 0.8155379855328497, 1.4610868913200397, 1.0269486245927013, -0.4693131384823584, -0.4186080799660477, 0.6082377995608452, 1.9095897494822827, 1.2746612007963132, 1.1339173555142945, 0.3100987189823361, -0.4876288308186129, -0.007602711414082943, -0.3682916135868882, 0.41148848012760186, 0.3930916364508902, -0.00547130485025582, -0.2876418482234447, 0.2513280391795972, 0.21943991332481924, 0.024947736364443474, 1.2731990793210248, 1.4562655937724278, 1.4762242828224208, 1.3286985335699086, -0.46430950924823566, -0.06249970028070112, 0.9341312704277291, 1.6578449335516148, 1.0229878298980908, 1.027928447633824, 0.7861495057789774, 0.180454813236559, -0.1696167037577393, 0.4917335237727869, 1.4211794710126502, 0.8751348040043107, -0.38129835444180626, -0.430724238973232, 0.08380064156188391, 0.41641999195530444, -0.34193809213084864, 0.3719697985202582, -0.14258407729786782, 0.35356358184736747, 0.13757820304110152, 0.11559968153776115, 0.023125696418682826, -0.3969600153721993, -0.11677578585767404, 0.27157554633478215, 0.6084599199352043, -0.014058919949924371, -0.3435938932652185, 0.055084487296479724, 0.3465182548386619, 0.17263191453803442, 0.798100801544263, 0.4847795890849631, 0.7268480915794246, 0.21892603530318114, -0.3415330519492769, -0.3920423973825081, 0.23665625659075007, 0.004870096575230891, -0.5604622392814592, -0.18956860035594084, 0.486207341815986, -0.020939869907144786, -0.1332835169655164, 0.0852548454946801, -0.4256863748675601, 0.10925214931657101, -0.2408284896165712, 0.03546672929064365, 0.4628566091670322, -0.1767358844270683, -0.42456037268582425, -1.0452568085284952, 0.22164791928298394, 0.6116636926830463, -0.1384226517739255, -0.7967413444339785, 0.018488732722264405, 0.9998804071515969, 1.0822162754754312, 0.11038039874225906, -0.3734469264179554, -0.11234927664811614, -0.6891643018015169, -1.0749956233097282, -0.540899550520188, -0.01665584887010905, -0.43056114003310286, -0.6004802774300184, -0.20068656172509605, -0.3420694818104307, -0.06841354233468852, 0.03152770798661686, 0.2879053058646429, -0.2413299694714861, -0.0613762805242263, 0.10420336927938895, -0.19908104899349482, -0.053728901594278816, -0.693123036309535, -0.875934071932629, -0.7827931345415823, -1.0950655146920443, -1.3833436200724738, -0.48697790408022945, -0.2517360065259772, -0.5685473984324177, 0.390552545971608, -0.22258008406737415, -0.45826103632616233, -0.5489376845972779, -1.2351437042494797, -1.2287843892388632, -0.6452504300098967, -0.4416518440329145, -0.023660341004142847, 0.6923396666444702, 0.35908582457994953, 0.36842200549353926, -0.2545178262357223, 0.07595447448805559, -0.43540687043348003, 0.11580993128960637, 0.3863606042929027, -0.5500483783219953, -0.33155607937180953, -0.2085012799116691, -0.5540580225566487, -1.242781170351134, -0.9737960209778753, -1.1240028555191397, -1.5176174220716179, -1.4424464341277845, -1.02683308280366, -0.14606376108462196, -0.0423135964854369, -0.940778816501397, -1.6065924882322398, -1.1006676015239887, -0.6834812100537003, -0.12355987875508381, -1.0368903941448644, -0.6086126387074183, -0.21940133250108967, 0.4163157876816869, 0.22929457603209957, -0.08134874019161387, 0.20447358441166652, 0.12631312861337352, 0.3032908720978226, 0.03745389944591915, 0.10499640915187203, 0.0025050385377325293, -0.295483033738697, 0.35393581770889365, 0.17465431758836922, -0.6193298220705263, -0.107226105010092, -0.04982392635746759, -0.8583133701551141, -1.6003730750494598, -1.0270667718084634, -0.8146965176725938, -1.4924030292804942, -1.749398204364809, -0.3863045997028669, -0.09700137962556592, -0.4373314927355905, -0.1945276555833435, -0.6069251455237177, 0.3776766540438213, -0.31638348741903727, -0.4362328662683005, -0.16028207765406133, -0.39682182020499623, 0.1740753308627491, -0.4844792379509195, -0.35208596276849935, 0.26964162064834674, 0.47699965518076703, 0.00685985377557013, -0.8910855068745012, -0.14828793122450373, 0.20154726965554906, -0.26054925247040933, -0.1441059837363402, -0.037392113847165766, 0.7835980234840821, 0.7339446818518557, 0.7691484943501615, -0.3903691267428973, -0.0699748381628425, -0.12780365751246076, 0.6697716035785822, 0.13066924363432703, 0.5360891613264192, 0.4191678651510518, 0.0012704645088717878, 0.36462247986493096, 0.17215746059774642, -0.02642424947541153, -0.314906584491372, -0.2596860013970918, -0.4064781768308511, 0.3028255106291421, 0.08514757504525039, 0.45982160137157724, 0.1328691900216593, 0.4476795023655395, -0.10800077969583001, -0.3401290750485178, 0.09626643408505937, 0.0028323065998379633, -0.1405332648560827, 0.9258857595581981, 0.6254304299202994, 0.8870864731977811, 1.0479510456194077, -0.009119329539849905, 1.0103491242866023, 0.022267158779522168, 0.4967510556403179, 0.7515411897717298, 0.4926782278574563, 0.1905857672564947, 0.49181840050062864, 0.050442926859412984, -0.33769393781486085, 0.3696051322519185, 0.4130309178834914, -0.3342038263708771, 0.3521206164603795, -0.05224246921018383, -0.24555036719477974, -0.07656195078037131, -0.31647249849189496, 0.026090170155970815, -0.2668611058087663, -0.427624242430387, -0.021986535755859387, 0.05156379424874246, 0.21225271132102477, 0.036981660666529914, 0.3958363863281738, 0.54130331733428, 0.057127438270987034, -0.3573484240795122, 0.021359201965032874, 0.5619430078714979, 0.49172325551860846, -0.28289734227124974, 0.5768758367517406, -0.11223148696891308, 0.004828385721480217, 0.07795845663793416, 0.24400264643553018, 0.3125989436325012, 0.21722488743775384, 0.34185378256992216, -0.41231487800375044, -0.2899305376541752, -0.29253985291506646, 0.21634219467682902, -0.17490308019986622, -0.14585807269064055, 0.002373976515948617, 0.47640753318561635, 0.024634587675986808, -0.4924181828823497, -0.32528063724126144, 0.426624491538539, -0.23433431893685588, 0.02724357140540853, -0.36090225695176253, 0.3825472972858857, 0.13423660714743785, -0.17874685932161186, 0.027897675414012658, -0.4869481701431921, 0.37896536748471255, 0.26492222021067613, 0.04113350685864362, -0.11011803974556134, -0.032329766965678686, -0.047879381103201335, -0.44220560316278723, -0.41524352707469236, 0.4436922180228846, -0.21032482488101367, 0.11601652435115517, 0.26539481229234907, 0.22869770810563472, 0.11236665006702695, -0.26348971195239557, 0.0018883569469241301, 0.2639331500307045, -0.0521768994550601, 0.38009307850187624, 0.38209409891737445, -0.3880305451428274, -0.4439103807266067, 0.4012105453537107, -0.0804215259846992, 0.3162826307462414, -0.4394115242752573, 0.4946647805423524, 0.12487139819086024, 0.06368299621682205, 0.2980109043020711, -0.1342544136950531, 0.22191748714047155, -0.3651851750757338, 0.09408792217950912, 0.24414251992984326, -0.07381235664423302, -0.035759173183376625, -0.04143953407826828, -0.3274069170752648, 0.49344112197825796, -0.3467561157653821, -0.31552813681111314, 0.4722318447108166, -0.32335806796707334, 0.342794886185186, -0.21150883538607462, 0.1628841231544797, -0.3816380040482517, -0.25333023187791354, 0.3382666070442851, -0.2750288839511463, 0.18475559529895988, 0.4668099953300033, -0.2174203006663082, -0.2069950167065597, 0.2778885697861174, 0.1671363837666476, 0.35101689824312365, 0.05152301423463291, 0.02665191010031165, 0.40829670508436555, -0.025482518796880904, -0.34867070861174665, -0.39806544411575606, -0.4140842018911425, 0.18030363628042434, -0.34479744419437475, 0.38314411842136165, 0.2690825119559642, -0.0801608893153386, 0.4188284040913821, 0.25609754878361063, 0.1250350331288515, 0.2561734992898332, 0.11451237211553539, 0.035492771766338665, 0.3839294210943507, -0.1725729003059523, 0.0655040397439453, -0.21747453109967943, -0.13706630952708465, 0.45360448636274997, -0.3872548014074865, -0.3635008566172251, -0.3685929187798606, 0.342219062918553, 0.2791900380807565, -0.13865809318428649, -0.24610801629791101, -0.42747583334680844, -0.47604305742974407, -0.05169381924152838, 0.3679242572948378, -0.4604457996751624, 0.3553630208379239, -0.32365541113100915, -0.22822700261438034, -0.45126150369573836, 0.0173716241722386, 0.4318817558315669, -0.2599608548125512, -0.18137299151619166, -0.18187667928193155, 0.12356575247681009, 0.36365507210887665, -0.25495036662909787, -0.4525083195662781, -0.09335526124622041, 0.4657269637147308, -0.01628405280011669, -0.2010101696043758, -0.09198945022605319, 0.450005025881017, 0.05462672213594206, -0.04922354445289184, 0.44704703234589244, -0.05208049432123104, -0.1242854273153269, 0.3399647377292601, 0.21130375085830846, 0.48555342902875187, -0.05634125782061239, -0.1575302206492577, -0.25180517813568504, 0.03814939683064411, 0.3477764681208438, -0.45602396760966024, 0.37824521154130925, 0.42518681606994496, -0.3563074125515518, 0.23260988658064888, -0.40741310019076854, -0.3791415443386588, -0.035720542950760964, -0.2079006481394189, -0.1905400515361296, -0.07388030200833959, -0.19798052208018269, -0.20432617494378585, -0.06352098351407569, 0.24873776914253137, -0.4974951112521609, -0.023472590849587527, 0.42441047757985817, -0.07830857939164954, 0.0020661939867669824, 0.10656928282249499, -0.4927831499311798, -0.4560100461162838, 0.18342395068757789, -0.19991953579305266, -0.3184990639842261, 0.02931621081599533, -0.0727538465551033, 0.4628643810936509, -0.13192326585265352, -0.379989626662711, 0.0391413064730057, 0.4185061434284043, 0.1457471713543822, -0.2770924161734331, -0.13438987382004824, -0.7321160145825651, -0.7364169376654213, -0.6806301914949193, 0.023722972416951583, -0.18625071907958024, -0.7729268586685679, -0.038777827891962505, -0.21883666498724313, 0.09152981575238833, 0.2029726696572881, -0.45818067042600436, -0.48990658749353505, 0.4670440433093169, 0.0835789106762109, -0.17167229376090212, -0.4891296436761209, 0.4129511063127197, -0.43105802322538844, -0.12306690040224344, 0.4004970084501183, -0.16852314671532043, -0.3491195553407195, -0.45932697450246657, 0.010065101722633925, 0.38755927767484866, -0.3604515214710919, 0.0989043271264008, -0.40037606171138573, 0.0716472966812422, -0.0074811677862366725, -0.2584259729727363, -0.24323957265448234, -0.1313600977514614, 0.027891048621126333, -0.17486517174078736, -0.057219312289112166, -0.6082443494905662, -0.18677241457313573, 0.4274538157356203, -0.11369125289478636, -0.3829225436358862, 0.49570968906673635, -0.25432253413318495, 0.05818780726294279, -0.2501271967603712, -0.48225761950929424, -0.2376236178427558, 0.1849852928735346, -0.094514998021287, 0.14772559942435065, 0.48446876070983413, -0.3971607446549341, 0.3215652687338274, -0.17682551334830177, -0.7966837750771437, 0.027042295957142064, -0.2914488896102156, -0.49132260902623975, 0.008148423231977786, -0.07128773272370516, -0.4146475717812736, -0.3966884453237929, -0.5063707267159903, -0.14569182284969448, -0.660389445426714, -0.1659054956662356, 0.042592090888351794, 0.49718342083094896, 0.22779593374417828, -0.33897345525341405, 0.1763919861070581, 0.4813926279151075, -0.3949457835934542, 0.24299991697842008, 0.017461333518733423, -0.0807765940160106, -0.04554371377997551, 0.12441884817413805, 0.3659975555626297, -0.46138902703872064, 0.06220446277195171, -0.10936187279748573, -0.42230277479459033, 0.2041073477957796, 0.4479847265761043, -0.04308917198399124, -0.25387727572750296, -0.19953130139305245, -0.7241994582697562, -0.23094449018926433, 0.025163528854340797, -0.4475815385509536, -0.5708624977541129, 0.05983329306032776, 0.39758886490306494, -0.07838134940818092, -0.42266893616558554, 0.3089647714146593, -0.48228961253944724, -0.1935347297860145, -0.09177313431854042, 0.08799938542078978, 0.3091207199802588, 0.4221289326925346, 0.3304014193358629, 0.030316236547688898, 0.36240912497564065, -0.3613915602141845, 0.3135556659873998, 0.10870551520919904, 0.15835248558361845, -0.010312952756846537, -0.30714604658628875, 0.40421936228666566, -0.04733294894533065, -0.5212335116546445, -0.5438747570206199, 0.2174803851608877, -0.21569709895600697, -0.4899462392250194, -0.4736172789717966, -0.17000238831775885, -0.2166620941490069, 0.3546100828033982, 0.2420757390542038, -0.4235390909497029, -0.38260897400079, -0.31444724564572696, -0.22137661644137385, -0.22084025466603718, 0.38276694972629405, 0.4046300839538534, 0.311821144751334, -0.09743953821390264, -0.2923139024968156, -0.35378539170212103, -0.40954410962688587, -0.12047849342095356, -0.13445549235605742, 0.26368132328468635, 0.07523165438332757, -0.2576388747491842, -0.04751345242793725, 0.049997076644201145, -0.1762136833646487, 0.03327398904752044, -0.4314347024587103, -0.3237581776429822, -0.005736088595650226, 0.16132884074746176, 0.1662010328944752, 0.32433289580825153, -0.4516045724468417, -0.428203966820866, -0.028437066658219726, -0.1626285133165884, 0.06402090666262246, -0.028474245527340184, -0.2745050032553683, -0.43472352682743953, 0.2776513589198489, 0.3785253107946374, -0.3800625594421364, 0.26744697182788074, -0.5207478364647181, -0.026832695140230588, 0.3070804384536768, -0.3188586008604052, 0.1511744909100094, 0.3582645229676958, -0.30661208884360863, -0.5119450948532055, -0.11969666511969514, 0.07225159612413619, -0.22935544969740349, 0.12047480030859037, -0.2984997509213648, -0.5841376281643812, -0.240274014683208, -0.018212120132785208, 0.15694479627823626, -0.19607897155015366, 0.15878021339791581, -0.15435395069652535, 0.07563341102744037, 0.15668195239876315, 0.010005035592310776, 0.032043852160366, 0.391531961685693, -0.15906251131246882, -0.06075233386711492, -0.2650588828524798, 0.13945864307772587, 0.21003166986854238, -0.1952774398508137, -0.4258610700055037, -0.09059641449486276, 0.19202722493172428, 0.2294642687313715, -0.19420227887629887, 0.2468459636792286, 0.4428018532271366, -0.5261294627545041, 0.10244661535321498, -0.09268106664964793, -0.40709901047425173, -0.20573829688862696, 0.4485626468173082, -0.45893930631451074, 0.47310475255452905, 0.11097638378578803, 0.17377249972961673, 0.028892328628387087, -0.04057924577446112, -0.33962615018906567, -0.3067893077862328, 0.3534373085192393, -0.08916453401187611, 0.10271547553627, -0.0050293791250211545, -0.6803395551206067, -0.27915956784849005, -0.23962712845112186, -0.3355674737846422, 0.3150267720591133, 0.08975803873942363, -0.3698994489404651, -0.6734055041088057, -0.46387849598891867, -0.42310395280610685, 0.1095464437688926, -0.48671951039637745, 0.1693379707501521, -0.4232891864004075, -0.6781363012752818, 0.08277336624549178, 0.13783249753155455, 0.0826450130277138, 0.3268281695257789, -0.33013959196155374, -0.3548996732961085, -0.28950059169420084, 0.3290028193603566, 0.1744162214036381, -0.10278068167905581, -0.28622206320682847, -0.12581478432098697, 0.014146508903600934, 0.1850630788862424, 0.023922255519254882, 0.3306386287784714, -0.25527744858525464, -0.1607527216056034, -0.15394006604804714, -0.6779229789177008, -0.38365178890286206, 0.44094265347176975, 0.38052870474904593, -0.2318649343724086, -0.15071614920838985, -0.11579389150068642, -0.41825087300045305, 0.05669752534978485, -0.2541563510333204, -0.2954155153182996, -0.3002964300565194, -0.48797377073182424, -0.16553032793811584, 0.3940709074244809, -0.0789776483443827, -0.3731956974528808, -0.09505179979519968, -0.1744593383148346, 0.41305592409326947, -0.01780034475267712, -0.09537308472266351, -0.06033393733574269, -0.07120091906476105, -0.015421581572568172, -0.34704205343757155, -0.02105693517250169, -0.24812811825766434, 0.018611764110649943, 0.035156034758752806, 0.31642038631585945, -0.13615411524324172, -0.4955614291909885, -0.12426450337574, -0.28302411395716626, -0.0842693967869473, -0.7009555690411704, 0.1768999521809212, -0.43320888668745156, 0.2576994696834276, -0.48922836720712193, 0.07260083087123188, 0.13309837511707423, -0.09943338546331548, 0.292952013114891, -0.2757198200812145, 0.24099491742907211, -0.12329443269948515, 0.1981341182294971, -0.19120822191305706, -0.06329904090150858, 0.47096829792567246, -0.27347594492833277, 0.18088078749835068, 0.06202330418759362, -0.4899222328479445, 0.04555173992369811, 0.2943046079346638, -0.20088287800822277, 0.19120025068395446, 0.05375347451757136, -0.18318597792312644, 0.11274765431362506, -0.031254129882487686, -0.5202341304240299, -0.17574523952997226, 0.3318502060760674, -0.10575350382013131, 0.4173838078523035, 0.16128321705383325, 0.27985620761608976, -0.04030195749223964, -0.1951174986701182, 0.4586532922662366, -0.3033340041850774, 0.19881025551759726, 0.15340264109217283, -0.055444296684421183, 0.023787714069144192, -0.3693768260718611, -0.015773955937554273, -0.2668536869002469, -0.43670875759004907, -0.3130129486747651, 0.1529134834158121, -0.3754498989961791, -0.21276365752545207, -0.20556771582413938, -0.25973364702129453, 0.11973675987025552, -0.3677649662348619, -0.7263385153876378, -0.28986410710686583, -0.06393728814839791, 0.33224244104661627, 0.08227652104372132, 0.47543511971039853, 0.31225066297305903, -0.09056968885701777, -0.27365342468366094, 0.3078553085878955, 0.26944643391247197, 0.406486114840945, -0.029299930284108152, 0.28427556208415145, -0.150395198665414, -0.4387111768596466, 0.13368819442780674, -0.0837144178315361, -0.029946958988904357, 0.18126088551861275, -0.6727473038172194, 0.09262841617182827, 0.18053607751940634, -0.3843516504769185, -0.18351840328836433, -0.343074037462211, -0.5583421933863572, 0.21270420334560708, -0.6536819774672805, -0.1451131436974912, 0.4098449781889342, -0.19525315166132048, -0.08007655878938498, -0.2945821808510334, 0.2065778633741001, -0.1641275903870706, 0.2508762657066398, 0.07890132360872648, 0.43120093477021604, 0.44139563642923524, -0.1358727689866526, -0.08753464020158383, 0.21743379151709763, -0.5026427701289466, 0.23222393807907277, 0.019664780670069035, 0.11749082974651641, 0.1144284992744914, -0.6611752965649504, -0.3676960574290052, -0.11395405647751655, -0.2662030109185376, -0.13013628917166203, -0.2835655400130596, -0.21149650073346965, -0.030694338808503592, 0.18909432622834196, -0.12226899315961268, 0.09570874319525204, -0.0013417350633628954, -0.09550508477867253, -0.04867325901997443, -0.3622241269633694, -0.2753335402155058, 0.3031717391499263, -0.38125458916318794, 0.12196136711065453, 0.04505368965339213, -0.05950257966285042, 0.4964579894464957, -0.003037023797840644, -0.05046195578656247, -0.33406620922817476, -0.17438975569631412, -0.06972147286378809, 0.1710653087677633, -0.0591506282710349, 0.2530021501902661, -0.32006992596908757, 0.29605726888782125, -0.2943808943412772, -0.29852927121492223, -0.03713141280735108, -0.2840543623405365, 0.003283193614379414, 0.4411942140568954, 0.3140813299907286, -0.20611767908397938, 0.2112951985988738, -0.1316374661280134, 0.0921020190055134, 0.30148398770215223, 0.05686927532561281, 0.47366864639892114, 0.287621657845123, -0.19467379126768117, 0.30622475853040787, 0.274575765535521, -0.3523030472293485, 0.1404054265984485, -0.32786734030454084, -0.6630493374553496, -0.31294198665660866, -0.6213939533209332, -0.42807790238273774, -0.7322685648746163, -0.5691430664171625, -0.5540746339044266, -0.2987436585451114, -0.3126935107180822, -0.3803798193986235, 0.3261364780616684, 0.04863215166698074, -0.13419499275677352, -0.3000450134651181, 0.04359370403694456, -0.20562610869065132, 0.4277248906907802, 0.07248876722012654, -0.24427058028227144, -0.42487781306101446, 0.2596679675545701, -0.11452877126239752, 0.24791847987344426, -0.06495156507919256, -0.01785082901352434, 0.2667234813168002, -0.08257296564417206, -0.1890011548645387, -0.7543813079495338, -0.2027129020967914, -0.1790390380640089, -0.5716992870458155, -0.3796119435436855, 0.10217186809100688, -0.41379036471982333, -0.3210672134407878, 0.1261334431168174, -0.24440432878121882, 0.11760038622640978, -0.16121197154112812, -0.23178010662919785, -0.05627973148071862, 0.04709626738418674, -0.39920607144672215, 0.24746670626748113, -0.10479054210682037, 0.17543267914582172, 0.135864842613718, 0.3688655234234628, -0.3549806724840214, -0.4664016860446427, 0.4621462177573997, 0.49961333402790054, 0.2380674570709573, -0.13060726676285833, -0.3551729341954622, 0.21089388044734783, -0.8386372899405569, -0.9389828020864509, -0.5927165631886417, -0.34512967335863126, -0.5483657625491744, -0.13879970579504947, 0.13248814870084777, 0.4187551025054314, -0.42624213452607107, -0.4306345104640572, -0.1719434034070044, 0.2637691800509, 0.3103591187295188, -0.34874668797825004, -0.22314133827403032, -0.35803714292757327, -0.23461634166241696, -0.49775046005457835, -0.44902799271442173, 0.4237711499084652, 0.3050734251095017, 0.18153729279547648, 0.46748699180813585, 0.13056500651543315, -0.302454987609757, 0.003398502746127079, 0.4134243983106908, -0.3349595853498344, -0.18979220888645074, -0.11461278285901447, 0.2602218853933306, 0.42626453751552706, 0.24768142339085797, -0.3381537985053636, -0.059303829989242114, 0.1704870414347071, -0.42542815889405866, -0.22746683723969338, 0.23771722460246683, -0.3021486080567849, -0.061930376730831516, -0.37729636476309414, 0.16754543163189614, -0.09802037730787427, -0.3860439011853263, -0.16089002517272866, -0.3267233134470585, 0.39451144764791135, 0.28895425139138275, -0.39189143474296484, -0.3314132637972659, -0.4189167009916046, 0.4680251694075005, -0.29954153232289693, -0.14842108794683673, -0.10749439061081104, 0.1764124446228565, 0.38370759001403676, 0.10479487103071548, 0.34373160452088675, -0.13066171045744412, 0.07346230671688116, -0.4282136734505904, -0.4538262293660629, 0.20167274044917347, 0.49940548262697226, 0.2637557787215691, 0.017029541609506985, -0.4097107639705983, -0.15385342198340324, -0.2885195756397675, -0.44668294944494025, -0.2930875634451663, 0.38243895429534547, 0.3421559924967028, 0.3184188996880395, 0.4116041264961451, 0.0243590344351998, 0.14608145211081047, 0.17235576825435966, -0.004669576375922402, 0.45652304656247944, -0.1772659368032013, 0.19271650221507292, 0.15965911645149428, -0.4341459708413582, -0.3494384572434173, 0.45200070138184806, -0.40402929447376296, 0.17121224836359508, -0.0888313851135037, 0.05761472947799439, 0.04625093865423724, -0.3770996144431324, 0.15261724371243499, 0.41568001260982396, -0.37245387381708506, 0.20334612366495478, -0.2776402454837116, 0.3058192746667484, 0.0700559308991886, -0.10447273600657192, -0.39169269675130225, -0.35281955327986736, -0.4597751620853381, -0.23312399021286356, 0.04891261190280083, 0.3494195279950038, 0.24969225356850158, -0.040252025377506086, 0.3315398463394167, -0.45772140872421135, -0.1539245304670404, -0.23471183796731507, -0.1677919941420862, -0.13077445559933704, -0.4227485956376518, 0.04719151257621958, 0.05441346785589309, 0.01623682070357209, -0.35268548215073064, -0.32494672469693203, -0.024347756547894665, 0.4803139037919689, 0.17415515552201655, 0.26364925878195566, 0.22588506551866794, 0.03146809950788787, 0.308867103624512, -0.23384695103014141, 0.4310371502541026, -0.11418234175156183, -0.36944014551559823, -0.025005835168947832, 0.14041481796485378, -0.04225073847195582, 0.38155981091042845, -0.27169482291764446, 0.013364241259345988, -0.20182893476120056, -0.014925583067891268, 0.12041275284463604, 0.10152130260820824, -0.14694663429874177, -0.03651023059484637, 0.06443602217786937, -0.22575002551165502, -0.48594529470197334, -0.26670211303328073, -0.32592393914204276, 0.3671407970474285, -0.026024486899442034, 0.3258295370748925, -0.4559929226043614, 0.33380308043498264, -0.42465748662845515, 0.05072275982856589, 0.014037152968502276, -0.16496584577630358, -0.41095232068371756, -0.05869768729465641, 0.4029458747990623, -0.36503975215450457, -0.10601965907787561, 0.054979515617792296, -0.4849265042909899, 0.18726993091033153, 0.43945834666006584, 0.10324400528273979, -0.3842176230293549, -0.12939316028675416, 0.2225105512691667, 0.2107326785756911, 0.022766731447933595, 0.07055977584361275, -0.16382326066877737, -0.2463000033946655, 0.34461462410424004, 0.09948737603786073, -0.47656017155040464, 0.1215913877217012, 0.4768379261936495, 0.3980578978622604, 0.03409937185535927, 0.06058830550658445, -0.16753114863230978, 0.45288589086355324, -0.2973804601888702, -0.10642853403348496, -0.1401509406818945, -0.10088801706607066, 0.3846350187095314, -0.3259278445319154, -0.09587669888834315, 0.27789299952406826, -0.41635636198050285, -0.18754508086707966, -0.27866653602181973, -0.4971864564495329, 0.17344937546731196, -0.29620606427293733, -0.20565841981358346, 0.1598801750879398, 0.058116923161160815, -0.23350942983884787, 0.08648200796644422, 0.27160473132074237, -0.4730032139295161, 0.04399287170768369, 0.05723370552954349, 0.14791170964357547, -0.387219187638875, -0.226037977186621, -0.25340259930735975, -0.01997716320561449, -0.4062082999430674, 0.2960787597162341, 0.4581113719715458, -0.012653687698899513, -0.3284851167020882, 0.02095575950766255, -0.12481562923189163, 0.4903818028815979, 0.2700102595914989, 0.4045655684690565, 0.3262450707946052, 0.1198463110940966, 0.25222125112030097, -0.25785056659751343, -0.2574826200233848, 0.3548806491375806, -0.41150759488293753, -0.057046577344347774, -0.08029669798017562, 0.05530363180100366, -0.2447454443118361, 0.16356218308261336, 0.4924915899720656, 0.4737642206879968, -0.40290321707642274, 0.04800320685850612, -0.23400823093108625, 0.32247444361090083, 0.3929959971525566, -0.05797117116675152, 0.17704063661481192, 0.4773244605533486, -0.19064177119188258, 0.09760531502016828, 0.45444578358447235, -0.3988204795493772, -0.20274505073029125, 0.3461012730437613, -0.3796649488600176, -0.20567998001582802, 0.5493271208939972, 0.09156601659261225, 0.22410575106665934, -0.01502058617985569, -0.22733795832608722, 0.3424022162346996, -0.3078609675816361, -0.024711234532347498, -0.19529720895893798, 0.4056726348938788, -0.10836888181598027, 0.13485088409833992, 0.24956119888916126, 0.24201792929974275, -0.2590260700317214, -0.11819939178899039, 0.4412830972006097, 0.47888609341215843, 0.07659836400570236, 0.19161412574943662, -0.01900516715640476, 0.1963286398099989, -0.1991712484294238, 0.47032387623150657, 0.08261989706166246, 0.04369657386357612, -0.0584597356300544, 0.27248135357422587, 0.2873633684409719, -0.2538138313523652, 0.3797364448832124, 0.380629236846808, -0.4387044158293773, 0.22967690252428252, -0.31745729261342637, 0.43136711205446787, -0.4372308499622637, -0.19865591303966926, -0.35149315535104597, 0.15384653139223547, 0.07515180216842447, -0.3607711092346346, 0.12633052370689724, 0.22446863166863562, 0.29197376376724443, 0.19470027210562138, -0.07201771689675372, 0.4756584529653394, 0.27273729309444333, 0.20811380011830938, 0.13744398983210335, -0.04775148302520933, 0.45394947054037627, 0.40248247025330164, 0.10669960415191786, -0.2779778453169635, -0.08061607463572258, 0.506569770817976, 0.5114641616138597, 0.33436085840599605, -0.2765807907878288, 0.3946842055613637, -0.08666580079436279, -0.1304709265862825, 0.0693157356157763, -0.2810566669267022, 0.01872130867436047, -0.22759687288216465, -0.14297029441009124, -0.19418599460176825, -0.30332951637131156, -0.1468341468935841, -0.41866113598852916, -0.11424615033463949, 0.2374090766921966, -0.029524346931915524, 0.41047070394231594, -0.3426712714389276, -0.16209081013503535, 0.2842526051319376, -0.17403960581558373, 0.3993530644745016, 0.4145283879202491, -0.3604821545188979, 0.16353814862768637, 0.47746093122159416, 0.44625333199246364, 0.5903808975597562, 0.13458329639453895, -0.3671790332501275, 0.43700882862385987, 0.3299847127916181, 0.17694682531843117, -0.2008381223237432, -0.1415380196107877, 0.3560520177924301, 0.39065378471962053, 0.30176962736779317, 0.11568699941218696, 0.3320198012934992, -0.23289916568321786, -0.4888633921876487, 0.16551760695630455, -0.09793819441660741, 0.046974980212172654, 0.12569003415019794, -0.18859897333203648, 0.4391312676487593, -0.283090549258095, 0.1999966758255146, 0.27218738393580433, 0.4116945875406015, 0.41211239416269146, 0.16428192100332395, 0.30031396209743544, 0.25561215838042534, 0.12084216875095077, -0.29066629094013147, 0.02696146797052249, -0.4060205631260398, -0.2858876350505102, -0.40879449673071966, -0.32718933647389375, 0.033882168911064756, 0.07849196834334154, -0.41743150677340285, 0.16761813836259778, 0.26215985285242976, -0.35380403067529287, 0.13665790060991706, -0.12056407394643168, -0.44401154963922485, -0.31595329757555385, -0.11383483491838976, -0.04019530771999135, 0.39813569363857154, 0.4421156236203428, 0.2786905835009003, -0.29354015380080284, 0.07793845675760117, -0.07409358266608752, -0.03275188392235772, 0.5915113255804358, 0.021764295248548605, 0.11280877848808951, 0.35742966445591623, 0.012847787789339251, -0.10176569690714933, 0.4403153742422378, 0.43941186018360096, -0.07026864277474291, -0.4731019145935083, 0.24268939146688168, -0.48973294428258346, 0.04121358764398114, -0.32075823379701934, 0.47553156407938174, -0.1685067478768325, -0.10245768096737064, 0.18005304443227127, 0.21065089355584016, -0.23235214330731666, -0.12142842674700466, -0.3116073095030285, 0.49607000486110614, 0.3350422702131242, -0.23328443117046943, 0.607630726655224, -0.022666231454569547, -0.24045671082373468, 0.009903528902008511, 0.6068840679686806, 0.3383177595696581, 0.3543894107512652, -0.10176859346646021, -0.34899408199222703, 0.030939417523847195, -0.3183911407251132, 0.2537975508081765, 0.5108847290764699, -0.3134478448346744, 0.06581522410614442, -0.2391516985173256, 0.30969935079196886, -0.461342870855653, -0.35714205217014156, -0.10690575834874462, 0.3260416824336573, 0.3235960697471924, -0.3364710879649135, 0.44178405064029785, 0.3578049699690796, -0.04531882814710557, -0.12712113649726073, -0.13725440478298695, -0.06989927106302404, 0.3763011371287681, 0.2109878650409401, 0.44630003729513334, 0.5179659317265294, 0.2103327768270614, 0.2588228959305302, 0.49273542149050026, -0.07640414687050849, -0.15153327608022554, -0.4004561128026525, -0.38759767527341843, 0.02729485363718811, 0.028498964630898307, 0.19482197577292917, -0.04846486362002034, -0.3219948364301765, -0.47037511908616975, -0.1758927969216193, 0.028619795812864255, -0.43961213187026205, -0.007108673029067343, 0.42924079730532594, -0.09008773803254322, -0.09732915713707681, 0.40867207412142936, 0.030056486123031474, 0.059864274599085165, 0.20607514264501792, 0.46357847404586966, 0.3389400334166013, -0.17928815430804212, -0.39815424553467227, -0.17524638269394585, 0.04265494113421721, 0.5025537305333412, -0.46529247165083215, -0.12347422400705593, -0.10495007446033827, -0.16544858759862435, 0.1748795293039364, 0.39627221372450766, 0.19916432660883976, 0.3089327271743092, -0.10698162172663461, -0.4771091268043864, 0.18228662144174912, -0.4163789263173605, 0.1883904628885085, 0.3348584848145225, -0.2789282233772528, -0.04714198493778877, 0.5008657875957035, 0.1343511755381389, 0.31293404946146236, -0.3308114522648868, 0.09195439440650066, 0.1000820756340656, 0.16443421164975963, 0.1877733317513523, 0.5206566293200217, -0.3869879381210885, -0.02416599291117021, 0.11740439965977624, 0.110227182194825, -0.12171140557614714, 0.18970313449729798, 0.4688352661766031, 0.3589601374182539, -0.14171068016199811, -0.1976590087866814, -0.4232665873768713, 0.24074742184828146, -0.25493584259026486, 0.16308904893814058, 0.2604234855322667, 0.386185561425234, -0.20850761717840544, -0.0443561674112633, -0.3249617009742897, -0.2162619483721605, 0.331389402917037, 0.10026750155065219, -0.13724257547273644, 0.10948114606555194, 0.23884805221293304, 0.14898107662022556, -0.3107597295683435, 0.2562793438831155, 0.10179050135217972, -0.4105269341094109, 0.07012357501184091, 0.08640108119759689, 0.11732019701631241, -0.46828016594846034, 0.2509807486340682, -0.37023697285569834, 0.4415655574111422, -0.46848081488216387, -0.22444592249599582, 0.4284696316538198, -0.09934861840164382, -0.05180683282993837, -0.01339620275793787, -0.4102899967417041, -0.1753878974970978, 0.21584709557203757, 0.19846733069387154, 0.28991613712416187, -0.046357468653103466, 0.5173144079356214, 0.4400279772197109, -0.07869726300806933, 0.17558109922686246, -0.00460708856262875, -0.007074919683111736, 0.33914709772972784, -0.1667136327838299, 0.37738605113740586, 0.406526983151575, 0.20338737639850826, -0.49362980903268977, -0.13099288998919137, 0.4767532772721788, 0.15353970236564024, 0.23581511166303393, -0.1071866814905822, 0.16463872441185923, 0.0793428612726077, 0.4266535411616983, -0.4859633787353576, 0.3525527324649212, -0.43889144099176763, -0.14911039552530894, -0.3586167837804614, 0.052912208879155376, 0.5234905654585816, 0.3724326133581756, -0.36101608925912776, -0.3203402076887914, 0.16912972092085607, 0.10437426534008308, 0.2019145295826701, 0.1704110947897539, 0.2541765091953945, -0.07683042098973701, 0.5254148358300651, 0.47198795991194353, 0.38260073779579895, -0.1689255663355516, -0.4564635612936135, 0.4910816389065451, 0.3039791625784756, -0.16159144067991382, -0.44165611003310473, -0.28319361362995443, 0.07828509242720494, -0.38895248309109054, 0.0664557054039751, 0.4821214740175747, 0.19292954013066707, -0.14810151006591046, -0.20928785773305048, 0.49323371816230416, -0.25161508781523956, 0.40746847018246124, 0.2545763584723752, -0.29012680206159547, 0.06101523820582231, 0.645443878784598, -0.3783074825252731, 0.3417237049557877, 0.46404434621781626, 0.15878694614556152, 0.28742035222717105, -0.14201576083370268, 0.47724830850541217, -0.4355552260489649, -0.17999607122432096, -0.09570134978089108, 0.4962164647940322, 0.1299488267137219, -0.033267050095721985, 0.21680596935526508, 0.00201162680169589, 0.3893330718768176, -0.4962150682220826, 0.4809513820980915, 0.2445540814688467, 0.5179758257043129, 0.30832516243327096, 0.3528383443802952, -0.05154665934431362, 0.36825344544598143, -0.31452185637355684, 0.6637177729040871, 0.3265721354788292, -0.04968125831882271, 0.46150764976342584, 0.2284787022600913, 0.10740058599567213, -0.04631716487175847, -0.24333939536731977, 0.39512075105874717, -0.16856708625043004, 0.4839169227388481, -0.04826966173036096, -0.47648503319336377, 0.3738140461527062, 0.009803215414633488, 0.16524263012897372, -0.4491512286333781, 0.01622070974353705, -0.4349055977500558, 0.06272731621074516, -0.407091389356496, -0.1536379007485368, -0.2683195273206367, 0.49059861604505617, 0.009793040725723786, -0.01454498800975622, -0.3553534224589701, 0.015544640925000094, 0.16134485230327641, 0.39980327463287135, -0.05496424080574864, 0.18585967457625438, 0.15818427277327232, 0.5421890332828128, -0.243739197778436, -0.19278598315613069, -0.4534736679974998, 0.05119193234419106, 0.34701058544742325, -0.36483779055860016, 0.19267402717883517, -0.14917178225490152, -0.1353111838144313, -0.34461479037947373, 0.36408847784441367, -0.19855374806397139, 0.3620156210259693, -0.33570588449176963, -0.4948850662349307, -0.26458607705078707, -0.4886365539793075, 0.1482643485410403, 0.08226257358700274, -0.16006079330831302, -0.42718669080768684, 0.540713196345431, 0.36222632454731957, -0.1019138651209725, 0.2742094700952297, 0.47583000342075354, 0.16262377789689625, -0.17707378428021234, 0.19086661215866613, 0.21409674923932934, 0.34982579270362796, -0.02818413961724723, 0.5042624809967288, -0.38860045279155586, -0.06760530214041117, 0.15464747633520962, -0.033127254459006314, 0.0004926324407171778, 0.481795594947368, -0.20549265342270828, 0.28807528431401447, 0.45832100674007714, -0.22885704526272702, 0.2783708605077641, 0.2409592657805716, 0.19149921325816038, 0.27552036926163076, 0.3258930861827086, 0.48088075524346685, 0.5105956699771396, 0.13207975595873173, 0.4887559093094064, 0.4440246252744672, -0.09322403842439746, -0.29266739845266465, 0.3539212860408812, 0.34661581629945, -0.3762606413585015, 0.37844416049839225, 0.02637890573198821, -0.1305542687311881, 0.1416316426419653, -0.39752038748291796, 0.423393691702151, -0.1625816098502375, 0.44872890591846804, 0.11064688235417564, 0.13654120055533814, -0.2884334270658455, -0.00933626674871279, 0.29624317532993477, 0.2964725391011801, -0.42330094539244684, 0.4965945891611762, 0.4869562423363723, 0.5157021927040873, -0.35868297252193193, 0.15300717349259674, 0.17851751807669863, -0.26740454077760417, -0.011334436103686505, -0.1976126808508647, -0.41775132859099573, 0.03518394963572035, 0.3423437530149741, 0.37810586705353094, 0.25792448833365655, 0.11865581416821681, -0.0385977834939218, 0.15371920909412015, 0.4488754055558906, 0.30145181236028096, 0.37427666324224773, -0.34805332216856233, -0.4462804796881541, 0.24125869849384576, 0.49598952963862913, -0.12050769374183143, -0.24019818619600558, 0.30940063553341235, -0.045246256503271805, -0.3991991703004908, 0.4869518214419599, -0.14979294093106643, -0.0585476358009067, 0.037330635450427765, -0.31441835834284443, 0.265905674399207, 0.016171505134029308, 0.5020621934539002, 0.43012520005251714, -0.41212289341902375, 0.3724079001176577, 0.05577973680896956, 0.267943005234377, -0.32356218530668873, 0.10075379217647684, -0.15161790588225557, 0.47809235935367617, 0.36155803850588636, 0.3676659757005848, -0.4463507753785826, -0.3761031094096594, 0.04427790988405367, 0.386943767636297, -0.15943979222383048, -0.33574810668383065, 0.14419410654893577, -0.08869823001848909, -0.31532295114223696, -0.04853165251757935, 0.24068676577941667, 0.3439757028651439, 0.26046830855119063, 0.2554769547623668, 0.09198852872213431, 0.35353229136887854, 0.4680651527778026, -0.013883733597484795, 0.4189196886911279, 0.2228338757274294, 0.30366806024822934, 0.3524746070452268, 0.4993008815929281, -0.03444767783605031, -0.4521838656430714, -0.0151986094711062, -0.3519320608060184, -0.10159462443365941, 0.05230862217014132, -0.2623982669928254, -0.35392171676276885, 0.04151024953516991, -0.1575399352346577, -0.04544243122550752, 0.4426715434244157, 0.38517678243513925, -0.45502378779065605, -0.3802113779692145, -0.2414602510374173, 0.008135762893265445, 0.32894324029266114, -0.18909953852081346, -0.2951828654552914, 0.25125599182642344, 0.03472561309278853, 0.09628149444174113, -0.024638927797784607, -0.06443459552232496, 0.10595022600411562, 0.1533034285226694, 0.35367031604403293, 0.3109820827925127, 0.08933802806992566, -0.4249837384616192, 0.275773331244608, -0.2737194597483008, -0.45531517424858703, 0.20785750524416569, -0.1398238386441878, -0.49732714284989243, -0.4186734042696111, 0.23641434379969675, 0.1387185738045989, 0.3292782858481725, -0.28557513707712845, 0.07024648412771238, -0.3267204175533683, 0.12226975098431736, -0.30839138246937065, -0.09144055512690309, 0.37464225985270627, -0.3973332614255479, -0.06324559251980938, -0.09309871179691268, 0.0235526918511267, 0.273542964901598, -0.23899395046776672, 0.24208133332862403, 0.2869895763856506, -0.15470546809808472, -0.13651996648620338, -0.01291550958241787, -0.378804639377077, -0.07743065290603846, 0.3595372013528366, -0.03771962975280352, -0.45557742495627884, -0.10577336920693103, -0.2154271226352671, 0.24904474962876244, -0.4667498148172694, 0.432182360591636, 0.15274989630699837, -0.407624201589627, -0.4848027600998182, 0.022903547706526986, -0.47426945071098864, -0.3785433087478304, -0.14987886057939082, 0.31976304653557536, -0.04919940641088691, 0.16091000312669146, -0.07492556080392078, -0.36531342117497845, -0.2290283861641372, 0.04593879720737976, 0.08700158403040993, 0.22872667363226384, -0.3100282282848772, -0.4069154286362434, -0.12482379363682328, -0.1795379844842766, -0.3116915388802559, 0.2996514367797518, -0.20852067062402802, 0.2525586503922228, 0.18363579510001615, -0.4705296916788738, 0.2743310701319147, -0.2568743261351901, -0.3833685419723122, 0.2443099437659676, 0.07299533362148092, -0.1835681259336167, -0.07275324693138974, 0.35226285962179327, 0.4126777027926818, -0.06181028126946442, -0.35332598965288897, -0.4668512933591441, 0.480618907883017, -0.0932444179667794, 0.4487141446134185, 0.21775021579425258, -0.3756649600277546, 0.022599968584623764, -0.41659477135208034, 0.4531518831929996, 0.38346066755191255, -0.47089771041333717, 0.003308416119837676, -0.05394519002337972, 0.2795120933743893, 0.255632693659685, -0.48106221070296207, 0.4636719665249933, 0.3739550248150055, 0.07360795425064072, -0.3068852538119173, 0.16025944761707983, -0.024431361066818636, -0.481420835722652, -0.25059551116664597, -0.31633980517974514, -0.3100977684449933, -0.3900783191906148, 0.06892000027017607, 0.0631868735493881, -0.040982287527863454, -0.1869345301017706, 0.22161297260811694, -0.23271421039475207, 0.07467617482356448, -0.060439245851936385, -0.0694774817426097, 0.30638991846404173, -0.23284458404061825, -0.22410910262775907, 0.42169768976562394, 0.23008280292761651, 